{"learner":{"attributes":{"scikit_learn":"{\"_estimator_type\": \"classifier\"}"},"feature_names":["age","sex","creatinine_result_0","creatinine_date_0","creatinine_result_1","creatinine_date_1","creatinine_result_2","creatinine_date_2","creatinine_result_3","creatinine_date_3","creatinine_result_4","creatinine_date_4"],"feature_types":["int","int","float","int","float","int","float","float","float","float","float","float"],"gradient_booster":{"model":{"gbtree_model_param":{"num_parallel_tree":"1","num_trees":"100"},"iteration_indptr":[0,1,2,3,4,5,6,7,8,9,10,11,12,13,14,15,16,17,18,19,20,21,22,23,24,25,26,27,28,29,30,31,32,33,34,35,36,37,38,39,40,41,42,43,44,45,46,47,48,49,50,51,52,53,54,55,56,57,58,59,60,61,62,63,64,65,66,67,68,69,70,71,72,73,74,75,76,77,78,79,80,81,82,83,84,85,86,87,88,89,90,91,92,93,94,95,96,97,98,99,100],"tree_info":[0,0,0,0,0,0,0,0,0,0,0,0,0,0,0,0,0,0,0,0,0,0,0,0,0,0,0,0,0,0,0,0,0,0,0,0,0,0,0,0,0,0,0,0,0,0,0,0,0,0,0,0,0,0,0,0,0,0,0,0,0,0,0,0,0,0,0,0,0,0,0,0,0,0,0,0,0,0,0,0,0,0,0,0,0,0,0,0,0,0,0,0,0,0,0,0,0,0,0,0],"trees":[{"base_weights":[-7.570101E-1,-1.1155664E0,1.2985435E0,-1.1313043E0,2.6703796E-1,-8.315222E-1,6.693695E0,-1.1502241E0,-6.2235117E-1,-6.909701E-1,3.9881933E0,-1.0364423E0,4.6270084E0,4.271627E0,6.974105E0,-1.0073987E0,-1.1594068E0,6.59454E0,-1.119875E0,8.844733E-1,-1.0460896E0,6.552287E0,-5.7444876E-1,6.105768E0,-1.1391253E0,6.7702346E0,3.6212566E-1,6.7945404E0,-9.28737E-1,7.010245E0,5.803539E0,-1.1311649E0,6.2262087E0,-1.1627228E0,-1.0673054E0,6.8240547E0,-5.0045583E-2,4.8212767E0,-1.1583947E0,-7.203254E-1,5.310058E0,-1.7477609E-1,-1.1269075E0,6.7938194E0,1.0656141E0,1.514373E0,-1.0398167E0,3.8398078E-1,6.858768E0,3.3280647E0,-1.1588039E0,6.870851E0,1.3017923E0,4.3194394E0,6.6300794E-2,2.0832846E0,1.4768567E0,1.608817E0,-1.112815E0,7.012192E0,6.857945E-1,-7.7538574E-1,2.0930693E0,-3.4544384E-1,3.3891422E-1,1.9538275E0,-7.173441E-3,-3.3477846E-1,-3.4927434E-1,-3.4277272E-1,-8.126604E-2,2.0599673E0,-3.9387032E-2,-2.9339862E-1,8.2006747E-1,1.8474588E0,-2.0205235E-1,9.3078214E-1,-3.4905532E-1,4.1416034E-1,-2.929882E-1,1.8478158E0,5.5684876E-1,-3.220535E-1,1.4549109E0,-3.47105E-1,-2.0267983E-1,2.052773E0,4.4170856E-1,9.913438E-1,-2.0205235E-1,5.335826E-1,-3.347019E-1,1.608817E0,-3.2519987E-1,2.0809596E0,5.1275367E-1,-2.4316452E-1,1.993129E0,-8.8512935E-2,-3.48801E-1,2.0705204E0,9.277916E-1,-3.993392E-2,6.435295E-1,1.4372089E0,4.459179E-1,2.206971E-1,-2.3493752E-1,1.2965761E0,-1.1008623E-1,6.2050724E-1,-3.469426E-1,1.9764558E0,2.114021E0,-3.2930267E-1,6.7682505E-1],"categories":[],"categories_nodes":[],"categories_segments":[],"categories_sizes":[],"default_left":[0,0,0,0,0,0,0,0,0,0,0,0,0,0,0,0,0,1,0,0,0,1,0,0,0,1,0,1,0,1,0,0,1,0,0,1,0,0,0,0,1,0,0,1,0,0,0,0,0,0,0,1,0,1,1,0,0,0,0,0,0,0,0,0,0,0,0,0,0,0,0,0,0,0,0,0,0,0,0,0,0,0,0,0,0,0,0,0,0,0,0,0,0,0,0,0,0,0,0,0,0,0,0,0,0,0,0,0,0,0,0,0,0,0,0,0,0],"id":0,"left_children":[1,3,5,7,9,11,13,15,17,19,21,23,25,27,29,31,33,35,37,39,41,43,45,47,49,51,53,55,57,59,61,63,65,67,69,71,73,75,77,79,81,83,85,87,89,-1,91,93,95,97,99,101,103,105,107,-1,109,-1,111,113,-1,115,-1,-1,-1,-1,-1,-1,-1,-1,-1,-1,-1,-1,-1,-1,-1,-1,-1,-1,-1,-1,-1,-1,-1,-1,-1,-1,-1,-1,-1,-1,-1,-1,-1,-1,-1,-1,-1,-1,-1,-1,-1,-1,-1,-1,-1,-1,-1,-1,-1,-1,-1,-1,-1,-1,-1],"loss_changes":[7.169747E4,1.8026016E3,1.6604825E5,7.878906E2,3.328886E3,1.1592709E4,2.7479062E3,1.0239844E2,1.0554737E4,4.1652744E2,2.2403167E3,7.330248E3,3.4255059E3,5.6078706E3,1.143125E2,4.284317E3,2.1414062E1,2.8947656E2,6.346797E2,9.781436E2,4.2522766E1,1.5506299E2,1.8761913E2,6.078159E2,8.693086E2,1.2835742E2,1.4778682E2,2.1875195E2,1.6850684E2,1.6609375E1,8.9732983E2,2.1707764E2,1.4437012E2,3.8125E0,1.5496655E2,5.508008E1,2.1588837E1,1.3565463E2,6.3247314E1,5.603303E1,9.601282E1,2.4308185E2,6.7597656E0,2.0313965E1,2.695097E1,0E0,1.5924194E1,1.3398482E2,3.8259766E1,6.0143835E2,3.238867E1,7.21875E0,7.233961E0,4.6039734E0,6.806724E1,0E0,4.9568077E1,0E0,2.1445877E1,5.53125E0,0E0,2.0441769E1,0E0,0E0,0E0,0E0,0E0,0E0,0E0,0E0,0E0,0E0,0E0,0E0,0E0,0E0,0E0,0E0,0E0,0E0,0E0,0E0,0E0,0E0,0E0,0E0,0E0,0E0,0E0,0E0,0E0,0E0,0E0,0E0,0E0,0E0,0E0,0E0,0E0,0E0,0E0,0E0,0E0,0E0,0E0,0E0,0E0,0E0,0E0,0E0,0E0,0E0,0E0,0E0,0E0,0E0,0E0],"parents":[2147483647,0,0,1,1,2,2,3,3,4,4,5,5,6,6,7,7,8,8,9,9,10,10,11,11,12,12,13,13,14,14,15,15,16,16,17,17,18,18,19,19,20,20,21,21,22,22,23,23,24,24,25,25,26,26,27,27,28,28,29,29,30,30,31,31,32,32,33,33,34,34,35,35,36,36,37,37,38,38,39,39,40,40,41,41,42,42,43,43,44,44,46,46,47,47,48,48,49,49,50,50,51,51,52,52,53,53,54,54,56,56,58,58,59,59,61,61],"right_children":[2,4,6,8,10,12,14,16,18,20,22,24,26,28,30,32,34,36,38,40,42,44,46,48,50,52,54,56,58,60,62,64,66,68,70,72,74,76,78,80,82,84,86,88,90,-1,92,94,96,98,100,102,104,106,108,-1,110,-1,112,114,-1,116,-1,-1,-1,-1,-1,-1,-1,-1,-1,-1,-1,-1,-1,-1,-1,-1,-1,-1,-1,-1,-1,-1,-1,-1,-1,-1,-1,-1,-1,-1,-1,-1,-1,-1,-1,-1,-1,-1,-1,-1,-1,-1,-1,-1,-1,-1,-1,-1,-1,-1,-1,-1,-1,-1,-1],"split_conditions":[1.4195E2,8.5E1,3E1,1.2935E2,1.2024E2,2.8872E2,1.5053E2,6.447E1,8.338E1,7.453E1,9.749E1,1.8E1,2.3094E2,1.0281E2,1.3152E2,1.0965E2,7.5E1,9.638E1,7.82E1,9.772E1,7.353E1,1.0134E2,8.512E1,1.5053E2,9.708E1,2.5013E2,2.1746E2,1.059E2,9.215E1,1.4773E2,1.7602E2,1.0238E2,8.986E1,6.382E1,1.185E2,1.0829E2,6.4E1,1.0382E2,7.354E1,5.617E1,7.925E1,1.0238E2,1.1597E2,1.0624E2,9.448E1,1.514373E0,8.689E1,8.756E1,1.2437E2,1.8859E2,1.0457E2,2.3963E2,7.716E4,2.2459E2,2.6628E2,2.0832846E0,9.618E1,1.608817E0,9.216E1,1.5728E2,6.857945E-1,8.4E1,2.0930693E0,-3.4544384E-1,3.3891422E-1,1.9538275E0,-7.173441E-3,-3.3477846E-1,-3.4927434E-1,-3.4277272E-1,-8.126604E-2,2.0599673E0,-3.9387032E-2,-2.9339862E-1,8.2006747E-1,1.8474588E0,-2.0205235E-1,9.3078214E-1,-3.4905532E-1,4.1416034E-1,-2.929882E-1,1.8478158E0,5.5684876E-1,-3.220535E-1,1.4549109E0,-3.47105E-1,-2.0267983E-1,2.052773E0,4.4170856E-1,9.913438E-1,-2.0205235E-1,5.335826E-1,-3.347019E-1,1.608817E0,-3.2519987E-1,2.0809596E0,5.1275367E-1,-2.4316452E-1,1.993129E0,-8.8512935E-2,-3.48801E-1,2.0705204E0,9.277916E-1,-3.993392E-2,6.435295E-1,1.4372089E0,4.459179E-1,2.206971E-1,-2.3493752E-1,1.2965761E0,-1.1008623E-1,6.2050724E-1,-3.469426E-1,1.9764558E0,2.114021E0,-3.2930267E-1,6.7682505E-1],"split_indices":[2,0,0,2,2,2,2,4,4,4,4,0,4,4,4,2,0,6,6,2,6,6,6,2,4,6,6,6,8,10,2,2,6,6,2,10,0,4,8,4,6,2,2,10,8,0,8,4,4,2,6,10,5,10,6,0,8,0,6,2,0,0,0,0,0,0,0,0,0,0,0,0,0,0,0,0,0,0,0,0,0,0,0,0,0,0,0,0,0,0,0,0,0,0,0,0,0,0,0,0,0,0,0,0,0,0,0,0,0,0,0,0,0,0,0,0,0],"split_type":[0,0,0,0,0,0,0,0,0,0,0,0,0,0,0,0,0,0,0,0,0,0,0,0,0,0,0,0,0,0,0,0,0,0,0,0,0,0,0,0,0,0,0,0,0,0,0,0,0,0,0,0,0,0,0,0,0,0,0,0,0,0,0,0,0,0,0,0,0,0,0,0,0,0,0,0,0,0,0,0,0,0,0,0,0,0,0,0,0,0,0,0,0,0,0,0,0,0,0,0,0,0,0,0,0,0,0,0,0,0,0,0,0,0,0,0,0],"sum_hessian":[9.727572E4,8.28282E4,1.4447511E4,8.189618E4,9.3202295E2,1.0358647E4,4.088863E3,7.895967E4,2.9365107E3,7.4184894E2,1.9017403E2,9.984623E3,3.7402512E2,4.2594604E2,3.662917E3,4.7766025E3,7.418307E4,1.8859329E2,2.7479175E3,1.36186E2,6.056629E2,1.2147305E2,6.870097E1,1.40685E2,9.8439375E3,2.4853946E2,1.2548567E2,2.8659857E2,1.3934746E2,3.548375E3,1.1454215E2,4.6970796E3,7.9522896E1,7.1593836E4,2.5892363E3,1.8227037E2,6.3229218E0,1.6901655E1,2.7310156E3,1.0055877E2,3.562723E1,5.1677723E1,5.539852E2,1.1612289E2,5.3501644E0,4.499002E0,6.420197E1,1.6536871E1,1.2414813E2,4.243653E1,9.801501E3,2.4379726E2,4.7421913E0,7.7820573E0,1.1770361E2,2.7845175E2,8.146841E0,3.1614609E0,1.36186E2,3.5464294E3,1.9455143E0,1.7388035E1,9.715412E1,4.6557373E3,4.134218E1,7.599665E1,3.5262446E0,2.2826963E3,6.931113E4,2.365259E3,2.2397734E2,1.8117603E2,1.0943518E0,5.2285695E0,1.0943518E0,1.3497005E1,3.40465E0,2.5534875E0,2.7284622E3,1.0457139E1,9.010163E1,2.7966768E1,7.660463E0,4.450364E1,7.174084E0,5.178716E2,3.611361E1,1.1478535E2,1.3375411E0,1.9455143E0,3.40465E0,1.0943518E0,6.310762E1,3.1614609E0,1.3375411E1,1.2195943E2,2.1887035E0,1.9211954E1,2.3224577E1,4.401726E1,9.757484E3,2.4100058E2,2.7966769E0,2.0671089E0,2.6750822E0,6.0797324E0,1.702325E0,6.59043E1,5.179932E1,2.6750822E0,5.471759E0,1.2159464E0,1.3497006E2,2.816132E2,3.2648162E3,1.6293682E1,1.0943518E0],"tree_param":{"num_deleted":"0","num_feature":"12","num_nodes":"117","size_leaf_vector":"1"}},{"base_weights":[-7.696575E-1,-1.0764503E0,3.625653E-1,-1.089175E0,-1.6782515E-1,-8.344477E-1,1.6413467E0,-1.1049085E0,-7.7979153E-1,-8.4193236E-1,9.450996E-1,-1.0032619E0,1.3713899E0,9.14868E-1,1.7016113E0,-9.8474634E-1,-1.1116674E0,1.9522003E0,-1.0967479E0,3.7908363E-1,-1.037332E0,1.7242053E0,-7.562126E-1,1.4654287E0,-1.0913333E0,1.6536516E0,-2.3773131E-1,1.7197261E0,-9.327079E-1,1.7161958E0,1.258113E0,-1.0941364E0,1.4840657E0,-1.114618E0,-1.0304247E0,3.1027148E0,1.6162243E0,1.2743101E0,-1.1149842E0,-8.887697E-1,1.8633012E0,-3.9655057E-1,-1.0911306E0,1.7839372E0,-3.6037803E-1,1.5540342E0,-1.0719349E0,-5.021771E-1,1.7068993E0,7.530954E-1,-1.111425E0,1.7058696E0,6.214794E-1,1.6551995E0,-4.1716704E-1,1.7431104E0,-3.5318488E-1,1.5225815E0,-1.1015046E0,1.7267199E0,1.5044963E0,-1.4890149E0,1.7273155E0,-3.3223766E-1,-9.8253734E-2,5.8768076E-1,1.3612213E-2,-3.2015485E-1,-3.346972E-1,-9.780706E-2,-3.2849988E-1,5.512679E-1,1.5475022E0,-5.187126E-2,5.106283E-1,5.8708745E-1,-1.8724403E-1,2.1521549E-1,-3.3499414E-1,2.7763273E-4,-3.078428E-1,6.8367165E-1,1.009593E-1,-3.1289664E-1,3.408401E-1,-4.577422E-2,-3.2894763E-1,3.7850848E-1,5.687023E-1,2.6668337E-1,-2.71484E-1,5.646795E-1,-2.656161E-1,5.26384E-2,-3.3233726E-1,5.163202E-1,-3.2235813E-1,2.9412773E-1,5.296053E-1,-3.1165838E-1,5.9560555E-1,7.6990584E-3,-3.3376148E-1,5.178916E-1,2.5501424E-1,2.59237E-1,-1.7842367E-1,6.3806164E-1,-8.6672395E-2,4.058196E-1,-1.4809342E-1,5.249664E-1,-8.663829E-2,-3.2143474E-1,3.1486818E-1,5.6629702E-3,6.265216E-1,7.9397716E-2,-3.3567017E-1,5.1818687E-1,2.2271566E-1,-3.477258E-1,5.190973E-1,-4.6738198E-1,1.3731849E-1,1.7361115E-1,5.21182E-1],"categories":[],"categories_nodes":[],"categories_segments":[],"categories_sizes":[],"default_left":[0,0,0,0,0,0,0,0,0,0,0,0,0,0,1,0,0,0,0,0,0,1,0,0,0,1,0,1,0,0,0,0,1,0,0,0,0,0,0,0,1,0,0,0,0,1,0,0,0,0,0,1,1,0,0,1,0,0,0,1,0,0,0,0,0,0,0,0,0,0,0,0,0,0,0,0,0,0,0,0,0,0,0,0,0,0,0,0,0,0,0,0,0,0,0,0,0,0,0,0,0,0,0,0,0,0,0,0,0,0,0,0,0,0,0,0,0,0,0,0,0,0,0,0,0,0,0],"id":1,"left_children":[1,3,5,7,9,11,13,15,17,19,21,23,25,27,29,31,33,35,37,39,41,43,45,47,49,51,53,55,57,59,61,63,65,67,69,71,73,75,77,79,81,83,85,87,89,91,93,95,97,99,101,103,105,107,109,111,113,115,117,119,121,123,125,-1,-1,-1,-1,-1,-1,-1,-1,-1,-1,-1,-1,-1,-1,-1,-1,-1,-1,-1,-1,-1,-1,-1,-1,-1,-1,-1,-1,-1,-1,-1,-1,-1,-1,-1,-1,-1,-1,-1,-1,-1,-1,-1,-1,-1,-1,-1,-1,-1,-1,-1,-1,-1,-1,-1,-1,-1,-1,-1,-1,-1,-1,-1,-1],"loss_changes":[2.8066637E4,7.3485156E2,2.6370809E4,3.043125E2,6.6038306E2,3.3149932E3,3.6310742E2,4.7359375E1,2.6323325E3,1.3115341E2,4.4152515E2,1.798919E3,2.879076E2,9.535854E2,4.7583984E1,8.619717E2,1.2390625E1,1.1718005E2,1.19132324E2,1.453097E2,1.5863525E1,2.904541E1,7.826256E1,1.363515E2,2.966455E2,2.797351E1,3.30749E1,2.2248535E1,8.245555E1,1.3980469E1,3.22988E2,3.079956E1,9.2545715E1,1.5E0,9.027075E1,1.7351093E2,3.8204346E1,2.8754292E1,9.034668E0,5.1155777E0,2.175383E1,3.9018723E1,2.024353E0,1.0557861E1,5.693358E0,1.2102842E1,4.3530273E0,4.2498795E1,9.064941E0,1.9331602E2,1.0024414E1,7.489868E0,8.633205E0,8.369051E0,1.2563971E1,6.585083E0,6.978175E0,1.0985121E1,4.644043E0,2.6914062E0,2.1868878E2,5.6510468E0,1.4284668E0,0E0,0E0,0E0,0E0,0E0,0E0,0E0,0E0,0E0,0E0,0E0,0E0,0E0,0E0,0E0,0E0,0E0,0E0,0E0,0E0,0E0,0E0,0E0,0E0,0E0,0E0,0E0,0E0,0E0,0E0,0E0,0E0,0E0,0E0,0E0,0E0,0E0,0E0,0E0,0E0,0E0,0E0,0E0,0E0,0E0,0E0,0E0,0E0,0E0,0E0,0E0,0E0,0E0,0E0,0E0,0E0,0E0,0E0,0E0,0E0,0E0,0E0,0E0,0E0],"parents":[2147483647,0,0,1,1,2,2,3,3,4,4,5,5,6,6,7,7,8,8,9,9,10,10,11,11,12,12,13,13,14,14,15,15,16,16,17,17,18,18,19,19,20,20,21,21,22,22,23,23,24,24,25,25,26,26,27,27,28,28,29,29,30,30,31,31,32,32,33,33,34,34,35,35,36,36,37,37,38,38,39,39,40,40,41,41,42,42,43,43,44,44,45,45,46,46,47,47,48,48,49,49,50,50,51,51,52,52,53,53,54,54,55,55,56,56,57,57,58,58,59,59,60,60,61,61,62,62],"right_children":[2,4,6,8,10,12,14,16,18,20,22,24,26,28,30,32,34,36,38,40,42,44,46,48,50,52,54,56,58,60,62,64,66,68,70,72,74,76,78,80,82,84,86,88,90,92,94,96,98,100,102,104,106,108,110,112,114,116,118,120,122,124,126,-1,-1,-1,-1,-1,-1,-1,-1,-1,-1,-1,-1,-1,-1,-1,-1,-1,-1,-1,-1,-1,-1,-1,-1,-1,-1,-1,-1,-1,-1,-1,-1,-1,-1,-1,-1,-1,-1,-1,-1,-1,-1,-1,-1,-1,-1,-1,-1,-1,-1,-1,-1,-1,-1,-1,-1,-1,-1,-1,-1,-1,-1,-1,-1],"split_conditions":[1.3812E2,8.5E1,3E1,1.2534E2,1.1293E2,2.8872E2,1.4616E2,6.315E1,8.361E1,6.82E1,9.511E1,1.8E1,2.5021E2,9.771E1,1.2906E2,1.0316E2,7.5E1,1.2935E2,7.766E1,8.649E1,6.904E1,1.0021E2,8.379E1,1.4833E2,1.009E2,2.313E2,2.3967E2,1.0919E2,9.216E1,1.2519E2,1.6664E2,9.612E1,7.109E1,6.074E1,7.224E1,6.447E1,3E1,9.599E1,7.218E1,5.211E1,7.286E1,9.728E1,5.883E1,1E0,8.901E1,9.618E1,8.71E1,7.826E1,1.5968E2,1.809E2,9.234E1,2.3911E2,2.6696E2,2.6628E2,2.1186E2,1.1756E2,7.7E1,7.6E1,9.111E1,1.4273E2,1.6664E2,8.6E1,1.7851E2,-3.3223766E-1,-9.8253734E-2,5.8768076E-1,1.3612213E-2,-3.2015485E-1,-3.346972E-1,-9.780706E-2,-3.2849988E-1,5.512679E-1,1.5475022E0,-5.187126E-2,5.106283E-1,5.8708745E-1,-1.8724403E-1,2.1521549E-1,-3.3499414E-1,2.7763273E-4,-3.078428E-1,6.8367165E-1,1.009593E-1,-3.1289664E-1,3.408401E-1,-4.577422E-2,-3.2894763E-1,3.7850848E-1,5.687023E-1,2.6668337E-1,-2.71484E-1,5.646795E-1,-2.656161E-1,5.26384E-2,-3.3233726E-1,5.163202E-1,-3.2235813E-1,2.9412773E-1,5.296053E-1,-3.1165838E-1,5.9560555E-1,7.6990584E-3,-3.3376148E-1,5.178916E-1,2.5501424E-1,2.59237E-1,-1.7842367E-1,6.3806164E-1,-8.6672395E-2,4.058196E-1,-1.4809342E-1,5.249664E-1,-8.663829E-2,-3.2143474E-1,3.1486818E-1,5.6629702E-3,6.265216E-1,7.9397716E-2,-3.3567017E-1,5.1818687E-1,2.2271566E-1,-3.477258E-1,5.190973E-1,-4.6738198E-1,1.3731849E-1,1.7361115E-1,5.21182E-1],"split_indices":[2,0,0,2,2,2,2,4,4,4,4,0,4,4,6,2,0,2,6,2,6,8,6,2,4,8,8,8,6,4,2,2,6,6,4,4,0,4,8,4,6,2,8,1,6,8,8,4,2,2,8,6,10,6,6,6,0,0,8,10,2,0,2,0,0,0,0,0,0,0,0,0,0,0,0,0,0,0,0,0,0,0,0,0,0,0,0,0,0,0,0,0,0,0,0,0,0,0,0,0,0,0,0,0,0,0,0,0,0,0,0,0,0,0,0,0,0,0,0,0,0,0,0,0,0,0,0],"split_type":[0,0,0,0,0,0,0,0,0,0,0,0,0,0,0,0,0,0,0,0,0,0,0,0,0,0,0,0,0,0,0,0,0,0,0,0,0,0,0,0,0,0,0,0,0,0,0,0,0,0,0,0,0,0,0,0,0,0,0,0,0,0,0,0,0,0,0,0,0,0,0,0,0,0,0,0,0,0,0,0,0,0,0,0,0,0,0,0,0,0,0,0,0,0,0,0,0,0,0,0,0,0,0,0,0,0,0,0,0,0,0,0,0,0,0,0,0,0,0,0,0,0,0,0,0,0,0],"sum_hessian":[8.079822E4,6.357237E4,1.7225844E4,6.269419E4,8.7817944E2,8.897562E3,8.328283E3,5.9657746E4,3.0364456E3,5.4706274E2,3.311167E2,8.26554E3,6.3202203E2,6.391871E2,7.689096E3,3.1847256E3,5.647302E4,3.1512027E2,2.7213252E3,7.533964E1,4.7172314E2,2.2710284E2,1.0401384E2,2.8417978E2,7.98136E3,5.376783E2,9.434376E1,4.452795E2,1.9390755E2,7.4415107E3,2.4758507E2,3.0501345E3,1.3459093E2,5.4481617E4,1.9914019E3,6.936209E1,2.4575818E2,2.0244856E1,2.7010803E3,4.0847736E1,3.4491905E1,3.7185604E1,4.3453754E2,2.2091689E2,6.1859612E0,1.2034102E1,9.197974E1,3.0945223E1,2.5323456E2,8.561256E1,7.895747E3,5.1116556E2,2.6512737E1,7.4566336E0,8.688713E1,4.404697E2,4.809808E0,1.195737E1,1.8195018E2,7.08228E3,3.5923132E2,3.5800964E1,2.117841E2,2.9975977E3,5.2536964E1,1.0091892E2,3.367201E1,1.1900258E3,5.3291594E4,1.6773618E2,1.8236656E3,4.4108803E1,2.5253283E1,1.1208646E1,2.3454953E2,1.4867851E1,5.377004E0,2.058895E0,2.6990215E3,5.596336E0,3.52514E1,2.6724548E1,7.7673573E0,2.637919E1,1.0806414E1,2.6354818E0,4.3190204E2,4.1102287E1,1.798146E2,1.6858907E0,4.5000706E0,1.0808224E1,1.2258784E0,2.4612563E0,8.951848E1,5.9246E0,2.5020622E1,2.0181349E1,2.330532E2,3.494794E1,5.0664616E1,7.7010736E0,7.8880464E3,4.98251E2,1.2914533E1,2.2344404E1,4.1683326E0,5.925098E0,1.5315354E0,2.9076784E0,8.397945E1,4.3914368E2,1.3260244E0,3.3371997E0,1.4726082E0,3.5517578E0,8.405612E0,2.109004E0,1.7984119E2,7.077429E3,4.850278E0,2.7753489E1,3.3147784E2,3.4769653E1,1.0313112E0,2.3283603E0,2.0945573E2],"tree_param":{"num_deleted":"0","num_feature":"12","num_nodes":"127","size_leaf_vector":"1"}},{"base_weights":[-7.372559E-1,-1.040351E0,3.0368742E-1,-1.0535576E0,-1.6697964E-1,-7.9732424E-1,1.3547039E0,-1.0721735E0,-7.8127325E-1,-7.7131504E-1,7.8933674E-1,-9.6754634E-1,1.0759903E0,9.344803E-1,1.4238124E0,-9.1128546E-1,-1.0771419E0,1.5337034E0,-1.0585514E0,2.0899108E-1,-1.004477E0,1.401471E0,-6.146176E-1,9.7326726E-1,-1.0678523E0,1.3506612E0,-1.9072963E-2,1.3892314E0,-1.0379199E0,1.4284475E0,1.1931556E0,-1.0615522E0,1.2910327E0,-1.0809791E0,-9.7322303E-1,1.6491834E0,-1.228467E0,1.4720454E0,-1.0805246E0,-8.404574E-1,1.2142689E0,-4.9363843E-1,-1.0683669E0,1.4720955E0,2.5737372E-1,1.0025644E0,-1.0804642E0,-3.455329E-1,1.4512798E0,3.7315592E-1,-1.0802076E0,1.4125987E0,5.814691E-1,1.0821743E0,-2.2053795E-1,1.4144692E0,-4.402016E-1,9.6658146E-1,-1.1571072E0,1.4287317E0,5.5615854E-1,-1.3135107E0,1.4220268E0,-3.2101578E-1,-1.5174082E-1,5.3887856E-1,-2.3289098E-1,-2.9951718E-1,-3.2459605E-1,-8.0655135E-2,-3.1717128E-1,8.7683547E-1,4.5479086E-1,-3.8992307E-1,-5.3111058E-2,5.5860984E-1,-1.4062093E-1,2.707917E-1,-3.2546324E-1,2.9634407E-2,-2.9730973E-1,4.3651742E-1,-1.224313E-1,-3.0510566E-1,2.1191764E-1,-1.1484408E-1,-3.218001E-1,4.5703673E-1,2.4867854E-1,2.9777604E-1,-2.7371788E-1,4.7002348E-1,-3.831492E-2,-3.564895E-2,-3.284432E-1,3.683852E-1,-3.2483602E-1,4.5814922E-1,-2.2835061E-1,-3.5642314E-1,4.4819608E-1,-1.7987585E-1,-3.2459268E-1,4.3013462E-1,3.128618E-1,5.3943807E-1,1.0977232E-1,-9.164486E-2,3.8506743E-1,8.060976E-3,-1.9421676E-1,4.3562344E-1,2.5800472E-1,-2.851464E-1,3.5886765E-1,3.98292E-1,-2.1137759E-1,-3.201536E-1,-5.5574816E-1,4.2883843E-1,3.1699184E-1,-1.7460482E-2,2.5798994E-1,-4.2944002E-1,-2.14685E-2,9.7456396E-2,4.3065193E-1],"categories":[],"categories_nodes":[],"categories_segments":[],"categories_sizes":[],"default_left":[0,0,0,0,0,0,0,0,0,0,0,0,0,0,1,0,0,1,0,0,0,1,0,0,0,1,0,1,0,1,0,0,1,0,0,0,1,1,0,0,1,0,0,0,0,0,0,0,1,0,0,0,0,0,1,0,0,1,0,1,0,0,0,0,0,0,0,0,0,0,0,0,0,0,0,0,0,0,0,0,0,0,0,0,0,0,0,0,0,0,0,0,0,0,0,0,0,0,0,0,0,0,0,0,0,0,0,0,0,0,0,0,0,0,0,0,0,0,0,0,0,0,0,0,0,0,0],"id":2,"left_children":[1,3,5,7,9,11,13,15,17,19,21,23,25,27,29,31,33,35,37,39,41,43,45,47,49,51,53,55,57,59,61,63,65,67,69,71,73,75,77,79,81,83,85,87,89,91,93,95,97,99,101,103,105,107,109,111,113,115,117,119,121,123,125,-1,-1,-1,-1,-1,-1,-1,-1,-1,-1,-1,-1,-1,-1,-1,-1,-1,-1,-1,-1,-1,-1,-1,-1,-1,-1,-1,-1,-1,-1,-1,-1,-1,-1,-1,-1,-1,-1,-1,-1,-1,-1,-1,-1,-1,-1,-1,-1,-1,-1,-1,-1,-1,-1,-1,-1,-1,-1,-1,-1,-1,-1,-1,-1],"loss_changes":[1.9777082E4,5.5978125E2,1.6359515E4,2.4157422E2,4.1924222E2,2.202792E3,2.0871777E2,3.4796875E1,1.968463E3,1.0177957E2,2.4234648E2,1.2333379E3,1.7316046E2,9.202784E2,4.9345703E0,4.472627E2,1.6261719E1,1.0670087E2,1.5378027E2,9.197232E1,1.119458E1,1.5456482E1,6.5880104E1,1.9693335E2,1.07575195E2,2.1103577E1,2.6066462E1,3.9078125E1,4.710977E1,7.128906E-1,7.5526474E1,5.4196777E0,9.175421E1,2.40625E0,9.179736E1,4.9083435E1,7.9976654E-1,1.9025696E1,2.440747E1,6.146675E0,1.7954788E1,2.6962307E1,5.2789307E-1,4.827667E0,1.1747309E1,1.27969055E1,7.9777527E-1,9.8429886E1,3.9591522E1,9.262128E1,4.4213867E0,1.8348999E0,8.782226E0,5.4704895E0,1.0497847E1,1.5887695E1,1.1238064E1,7.783163E0,9.414154E0,1.3867188E-1,7.25374E-1,1.5473652E0,1.280716E0,0E0,0E0,0E0,0E0,0E0,0E0,0E0,0E0,0E0,0E0,0E0,0E0,0E0,0E0,0E0,0E0,0E0,0E0,0E0,0E0,0E0,0E0,0E0,0E0,0E0,0E0,0E0,0E0,0E0,0E0,0E0,0E0,0E0,0E0,0E0,0E0,0E0,0E0,0E0,0E0,0E0,0E0,0E0,0E0,0E0,0E0,0E0,0E0,0E0,0E0,0E0,0E0,0E0,0E0,0E0,0E0,0E0,0E0,0E0,0E0,0E0,0E0,0E0,0E0],"parents":[2147483647,0,0,1,1,2,2,3,3,4,4,5,5,6,6,7,7,8,8,9,9,10,10,11,11,12,12,13,13,14,14,15,15,16,16,17,17,18,18,19,19,20,20,21,21,22,22,23,23,24,24,25,25,26,26,27,27,28,28,29,29,30,30,31,31,32,32,33,33,34,34,35,35,36,36,37,37,38,38,39,39,40,40,41,41,42,42,43,43,44,44,45,45,46,46,47,47,48,48,49,49,50,50,51,51,52,52,53,53,54,54,55,55,56,56,57,57,58,58,59,59,60,60,61,61,62,62],"right_children":[2,4,6,8,10,12,14,16,18,20,22,24,26,28,30,32,34,36,38,40,42,44,46,48,50,52,54,56,58,60,62,64,66,68,70,72,74,76,78,80,82,84,86,88,90,92,94,96,98,100,102,104,106,108,110,112,114,116,118,120,122,124,126,-1,-1,-1,-1,-1,-1,-1,-1,-1,-1,-1,-1,-1,-1,-1,-1,-1,-1,-1,-1,-1,-1,-1,-1,-1,-1,-1,-1,-1,-1,-1,-1,-1,-1,-1,-1,-1,-1,-1,-1,-1,-1,-1,-1,-1,-1,-1,-1,-1,-1,-1,-1,-1,-1,-1,-1,-1,-1,-1,-1,-1,-1,-1,-1],"split_conditions":[1.3812E2,8.5E1,3E1,1.2292E2,1.1374E2,2.8872E2,1.5272E2,5.88E1,8.126E1,7.034E1,9.342E1,1.085E2,2.394E2,1.0459E2,1.3287E2,9.612E1,7.5E1,1.0017E2,7.449E1,8.719E1,7.286E1,9.234E1,9.071E1,1.62E2,1.8E1,2.2372E2,2.3967E2,1.1363E2,9.577E1,1.531E2,1.6664E2,7.7E1,7.146E1,5.608E1,7.114E1,1.2534E2,4.64196E6,8.356E1,7.254E1,5.211E1,8.025E1,9.798E1,7.075E1,8.841E1,8.901E1,9.384E1,8.886E1,1.8E1,1.2906E2,1.5968E2,1.0438E2,2.1787E2,2.0721E2,8.16E3,2.6628E2,9.468E1,8.5E1,1.0516E2,1.5053E2,1.4064E2,2.3551E2,7.9E1,1.7851E2,-3.2101578E-1,-1.5174082E-1,5.3887856E-1,-2.3289098E-1,-2.9951718E-1,-3.2459605E-1,-8.0655135E-2,-3.1717128E-1,8.7683547E-1,4.5479086E-1,-3.8992307E-1,-5.3111058E-2,5.5860984E-1,-1.4062093E-1,2.707917E-1,-3.2546324E-1,2.9634407E-2,-2.9730973E-1,4.3651742E-1,-1.224313E-1,-3.0510566E-1,2.1191764E-1,-1.1484408E-1,-3.218001E-1,4.5703673E-1,2.4867854E-1,2.9777604E-1,-2.7371788E-1,4.7002348E-1,-3.831492E-2,-3.564895E-2,-3.284432E-1,3.683852E-1,-3.2483602E-1,4.5814922E-1,-2.2835061E-1,-3.5642314E-1,4.4819608E-1,-1.7987585E-1,-3.2459268E-1,4.3013462E-1,3.128618E-1,5.3943807E-1,1.0977232E-1,-9.164486E-2,3.8506743E-1,8.060976E-3,-1.9421676E-1,4.3562344E-1,2.5800472E-1,-2.851464E-1,3.5886765E-1,3.98292E-1,-2.1137759E-1,-3.201536E-1,-5.5574816E-1,4.2883843E-1,3.1699184E-1,-1.7460482E-2,2.5798994E-1,-4.2944002E-1,-2.14685E-2,9.7456396E-2,4.3065193E-1],"split_indices":[2,0,0,2,2,2,2,4,4,4,4,4,4,4,6,2,0,6,6,2,6,8,6,2,0,6,8,6,8,8,2,0,8,6,4,2,9,8,8,4,8,2,4,4,6,8,10,0,6,2,8,4,8,11,6,4,0,10,2,10,2,0,2,0,0,0,0,0,0,0,0,0,0,0,0,0,0,0,0,0,0,0,0,0,0,0,0,0,0,0,0,0,0,0,0,0,0,0,0,0,0,0,0,0,0,0,0,0,0,0,0,0,0,0,0,0,0,0,0,0,0,0,0,0,0,0,0],"split_type":[0,0,0,0,0,0,0,0,0,0,0,0,0,0,0,0,0,0,0,0,0,0,0,0,0,0,0,0,0,0,0,0,0,0,0,0,0,0,0,0,0,0,0,0,0,0,0,0,0,0,0,0,0,0,0,0,0,0,0,0,0,0,0,0,0,0,0,0,0,0,0,0,0,0,0,0,0,0,0,0,0,0,0,0,0,0,0,0,0,0,0,0,0,0,0,0,0,0,0,0,0,0,0,0,0,0,0,0,0,0,0,0,0,0,0,0,0,0,0,0,0,0,0,0,0,0,0],"sum_hessian":[6.268191E4,4.8546465E4,1.4135447E4,4.7823105E4,7.2335956E2,6.9036465E3,7.231801E3,4.475998E4,3.063126E3,4.4336963E2,2.7998993E2,6.3290312E3,5.7461536E2,1.02339954E3,6.2084014E3,1.3463708E3,4.341361E4,3.271598E2,2.735966E3,8.521125E1,3.581584E2,1.9497931E2,8.501062E1,3.1059732E2,6.018434E3,4.5920197E2,1.15413414E2,8.318956E2,1.9150392E2,6.08101E3,1.2739138E2,1.260859E3,8.551186E1,4.1858582E4,1.555026E3,3.1441766E2,1.2742137E1,2.2983843E1,2.7129824E3,4.1769947E1,4.3441307E1,4.078482E1,3.1737357E2,1.8337311E2,1.1606199E1,1.8754038E1,6.6256584E1,8.270305E1,2.2789426E2,5.0915783E1,5.967518E3,4.242071E2,3.4994858E1,1.7172674E1,9.824074E1,8.207992E2,1.1096415E1,1.0348718E1,1.8115521E2,6.0783916E3,2.6181726E0,1.0261814E1,1.1712957E2,1.240953E3,1.9906048E1,6.8823456E1,1.6688408E1,5.1651825E2,4.1342062E4,1.6615894E2,1.3888671E3,2.77899E1,2.8662775E2,1.1712011E1,1.0301257E0,1.9171946E1,3.8118982E0,5.4896345E0,2.7074927E3,5.8187046E0,3.595124E1,3.7916897E1,5.52441E0,2.8505125E1,1.2279696E1,2.5394433E0,3.1483414E2,1.6854521E2,1.4827896E1,7.2198796E0,4.386319E0,1.2252192E1,6.501846E0,1.1103835E0,6.5146194E1,2.6174519E1,5.6528526E1,2.2063644E2,7.257817E0,2.1252565E1,2.9663218E1,2.3117577E1,5.944401E3,3.984975E2,2.570962E1,4.162056E0,3.0832802E1,2.1108322E0,1.5061842E1,6.2786194E1,3.5454548E1,7.671444E2,5.365478E1,8.778262E0,2.3181527E0,8.679145E0,1.6695728E0,1.6265503E2,1.8500185E1,6.063658E3,1.4733623E1,1.1338096E0,1.4843632E0,9.23236E0,1.0294542E0,1.7261809E0,1.1540339E2],"tree_param":{"num_deleted":"0","num_feature":"12","num_nodes":"127","size_leaf_vector":"1"}},{"base_weights":[-7.1347886E-1,-1.0135559E0,2.7114123E-1,-1.0402995E0,-5.5414814E-1,-7.687469E-1,1.2039131E0,-1.0514674E0,-8.399556E-1,-8.972504E-1,4.56041E-1,-9.4216365E-1,8.973256E-1,8.2097477E-1,1.2673341E0,-9.2384964E-1,-1.0568309E0,1.2457018E0,-1.0456382E0,1.3434926E-1,-9.9151415E-1,1.5647315E0,-8.252328E-1,8.1227136E-1,-1.04591E0,1.2668399E0,1.7939964E-1,1.235225E0,-8.7815183E-1,1.1396445E0,1.2794923E0,-1.0280929E0,9.747883E-1,-9.774602E-1,-3.1764105E-1,1.343835E0,-3.9276844E-1,1.3243667E0,-1.0617639E0,-8.7986696E-1,1.5758007E0,-4.2966053E-1,-1.0367109E0,1.6781707E0,2.411879E-1,1.138837E0,-1.0226121E0,-3.5196695E-1,1.2984707E0,2.7275458E-1,-1.0568936E0,3.8302383E-1,8.1415784E-1,1.0967284E0,-3.2019176E-2,1.2532237E0,-2.2244307E-1,9.67642E-1,-1.1082573E0,1.2900145E0,-1.2267282E0,3.8389722E-1,1.3312094E-1,-3.14102E-1,-6.1869647E-2,4.003504E-1,-8.953672E-2,-3.1608653E-1,1.4332801E0,1.3929978E-1,4.1862246E-1,3.993E-1,-3.8347137E-1,4.5446962E-1,-3.0583909E-2,1.4240107E-1,-3.196556E-1,-1.5227091E-1,-3.165055E-1,6.1105335E-1,6.785837E-2,-2.691972E-1,6.8469954E-1,-3.184391E-1,-2.646337E-1,6.928598E-1,4.11109E-1,4.5301268E-1,-1.4382067E-1,4.1973865E-1,-2.6759127E-1,4.434884E-2,-3.2111484E-1,3.4418997E-1,-2.9938036E-1,4.0807918E-1,-2.4841125E-1,-3.4209856E-1,3.9636275E-1,3.7086856E-2,-3.1731898E-1,3.346864E-1,7.000502E-2,4.0487486E-1,8.151834E-2,4.9002383E-2,-1.6971368E-1,2.9226464E-1,3.9180374E-1,-2.9995397E-1,2.758614E-1,3.727647E-1,-1.9788805E-1,8.4262386E-2,-3.426652E-1,3.890153E-1,-1.4255702E-1,2.8642043E-1,-5.724113E-1],"categories":[],"categories_nodes":[],"categories_segments":[],"categories_sizes":[],"default_left":[0,0,0,0,0,0,0,0,0,0,0,0,0,0,0,0,0,1,0,0,0,1,0,0,0,0,0,1,0,0,1,0,1,0,0,0,0,1,0,1,1,0,0,0,0,1,0,0,1,0,0,0,0,0,1,0,0,1,0,1,0,0,0,0,0,0,0,0,0,0,0,0,0,0,0,0,0,0,0,0,0,0,0,0,0,0,0,0,0,0,0,0,0,0,0,0,0,0,0,0,0,0,0,0,0,0,0,0,0,0,0,0,0,0,0,0,0,0,0],"id":3,"left_children":[1,3,5,7,9,11,13,15,17,19,21,23,25,27,29,31,33,35,37,39,41,43,45,47,49,51,53,55,57,59,61,63,65,67,-1,69,71,73,75,77,79,81,83,85,87,89,91,93,95,97,99,-1,101,103,105,107,109,111,113,115,117,-1,-1,-1,-1,-1,-1,-1,-1,-1,-1,-1,-1,-1,-1,-1,-1,-1,-1,-1,-1,-1,-1,-1,-1,-1,-1,-1,-1,-1,-1,-1,-1,-1,-1,-1,-1,-1,-1,-1,-1,-1,-1,-1,-1,-1,-1,-1,-1,-1,-1,-1,-1,-1,-1,-1,-1,-1,-1],"loss_changes":[1.4188133E4,4.5158594E2,1.0881201E4,7.693359E1,7.028646E2,1.53347E3,1.4257617E2,2.1570312E1,7.91162E2,1.4728186E2,7.32156E2,8.754346E2,1.3257336E2,5.944783E2,6.4155273E0,2.6550403E2,3.9101562E0,2.7176117E1,6.547864E1,1.8789491E2,3.4766968E1,4.106012E1,9.3944046E1,1.5263203E2,6.600195E1,4.418335E-1,3.325116E1,1.8072388E1,7.150662E1,1.6172455E2,6.982422E-2,1.948413E1,3.2489944E1,3.4663678E2,0E0,6.4550476E0,1.7177404E1,3.3543682E0,1.0115112E1,4.389511E0,3.254744E1,1.3515247E2,3.972168E0,4.6236206E1,2.1725517E1,1.3050653E1,1.2347214E1,7.860626E1,2.607373E1,5.8211376E1,4.5737305E0,0E0,1.4615111E0,6.3311157E0,1.4705989E1,8.59729E0,9.017232E0,9.2816105E0,7.2988434E0,5.628845E0,4.2548115E1,0E0,0E0,0E0,0E0,0E0,0E0,0E0,0E0,0E0,0E0,0E0,0E0,0E0,0E0,0E0,0E0,0E0,0E0,0E0,0E0,0E0,0E0,0E0,0E0,0E0,0E0,0E0,0E0,0E0,0E0,0E0,0E0,0E0,0E0,0E0,0E0,0E0,0E0,0E0,0E0,0E0,0E0,0E0,0E0,0E0,0E0,0E0,0E0,0E0,0E0,0E0,0E0,0E0,0E0,0E0,0E0,0E0,0E0],"parents":[2147483647,0,0,1,1,2,2,3,3,4,4,5,5,6,6,7,7,8,8,9,9,10,10,11,11,12,12,13,13,14,14,15,15,16,16,17,17,18,18,19,19,20,20,21,21,22,22,23,23,24,24,25,25,26,26,27,27,28,28,29,29,30,30,31,31,32,32,33,33,35,35,36,36,37,37,38,38,39,39,40,40,41,41,42,42,43,43,44,44,45,45,46,46,47,47,48,48,49,49,50,50,52,52,53,53,54,54,55,55,56,56,57,57,58,58,59,59,60,60],"right_children":[2,4,6,8,10,12,14,16,18,20,22,24,26,28,30,32,34,36,38,40,42,44,46,48,50,52,54,56,58,60,62,64,66,68,-1,70,72,74,76,78,80,82,84,86,88,90,92,94,96,98,100,-1,102,104,106,108,110,112,114,116,118,-1,-1,-1,-1,-1,-1,-1,-1,-1,-1,-1,-1,-1,-1,-1,-1,-1,-1,-1,-1,-1,-1,-1,-1,-1,-1,-1,-1,-1,-1,-1,-1,-1,-1,-1,-1,-1,-1,-1,-1,-1,-1,-1,-1,-1,-1,-1,-1,-1,-1,-1,-1,-1,-1,-1,-1,-1,-1],"split_conditions":[1.3812E2,7.5E1,3E1,1.2449E2,1.1597E2,2.8872E2,1.5272E2,6.075E1,7.772E1,6.447E1,8.988E1,1.0976E2,2.1225E2,1.0137E2,1.5968E2,1.029E2,6.074E1,8.794E1,6.99E1,8.899E1,6.904E1,9.259E1,8.379E1,1.6428E2,1.8E1,2.0709E2,2.313E2,1.0887E2,9.794E1,1.0511E2,1.5913E2,9.612E1,7.109E1,1.0965E2,-3.1764105E-1,1E0,7.218E1,8.193E1,7.11E1,5.752E1,6.727E1,1.048E2,1.0803E2,1.2534E2,8.38E1,9.405E1,8.795E1,8.126E1,1.3616E2,1.5968E2,8.879E1,3.8302383E-1,2.1746E2,2.3911E2,2.6628E2,1E0,7.7E1,1.0283E2,9.405E1,1.1499E2,1.0517E2,3.8389722E-1,1.3312094E-1,-3.14102E-1,-6.1869647E-2,4.003504E-1,-8.953672E-2,-3.1608653E-1,1.4332801E0,1.3929978E-1,4.1862246E-1,3.993E-1,-3.8347137E-1,4.5446962E-1,-3.0583909E-2,1.4240107E-1,-3.196556E-1,-1.5227091E-1,-3.165055E-1,6.1105335E-1,6.785837E-2,-2.691972E-1,6.8469954E-1,-3.184391E-1,-2.646337E-1,6.928598E-1,4.11109E-1,4.5301268E-1,-1.4382067E-1,4.1973865E-1,-2.6759127E-1,4.434884E-2,-3.2111484E-1,3.4418997E-1,-2.9938036E-1,4.0807918E-1,-2.4841125E-1,-3.4209856E-1,3.9636275E-1,3.7086856E-2,-3.1731898E-1,3.346864E-1,7.000502E-2,4.0487486E-1,8.151834E-2,4.9002383E-2,-1.6971368E-1,2.9226464E-1,3.9180374E-1,-2.9995397E-1,2.758614E-1,3.727647E-1,-1.9788805E-1,8.4262386E-2,-3.426652E-1,3.890153E-1,-1.4255702E-1,2.8642043E-1,-5.724113E-1],"split_indices":[2,0,0,2,2,2,2,4,4,4,4,4,4,4,2,2,6,6,6,2,6,6,6,2,0,4,8,8,6,4,8,2,6,2,0,1,8,8,8,6,8,2,2,2,8,8,8,4,6,2,8,0,6,6,6,1,0,8,8,10,8,0,0,0,0,0,0,0,0,0,0,0,0,0,0,0,0,0,0,0,0,0,0,0,0,0,0,0,0,0,0,0,0,0,0,0,0,0,0,0,0,0,0,0,0,0,0,0,0,0,0,0,0,0,0,0,0,0,0],"split_type":[0,0,0,0,0,0,0,0,0,0,0,0,0,0,0,0,0,0,0,0,0,0,0,0,0,0,0,0,0,0,0,0,0,0,0,0,0,0,0,0,0,0,0,0,0,0,0,0,0,0,0,0,0,0,0,0,0,0,0,0,0,0,0,0,0,0,0,0,0,0,0,0,0,0,0,0,0,0,0,0,0,0,0,0,0,0,0,0,0,0,0,0,0,0,0,0,0,0,0,0,0,0,0,0,0,0,0,0,0,0,0,0,0,0,0,0,0,0,0],"sum_hessian":[4.8018242E4,3.680221E4,1.1216029E4,3.47765E4,2.0257142E3,5.30358E3,5.912449E3,3.293626E4,1.8402357E3,1.512215E3,5.1349927E2,4.803982E3,4.9959818E2,8.42052E2,5.070397E3,1.3354071E3,3.1600855E4,1.6473518E2,1.6755005E3,1.2657567E2,1.3856393E3,2.7517136E2,2.3832793E2,2.6783575E2,4.5361465E3,3.2932895E2,1.702692E2,6.77218E2,1.6483398E2,4.490503E2,4.6213467E3,1.2663383E3,6.906877E1,7.783555E2,3.08225E4,1.5559587E2,9.139306E0,1.0774923E1,1.6647256E3,7.452729E1,5.2048374E1,1.0394718E2,1.281692E3,2.5320183E2,2.1969543E1,2.1328064E1,2.1699986E2,7.8982574E1,1.8885316E2,3.7273857E1,4.4988726E3,3.2049506E2,8.833908E0,3.1107756E1,1.3916144E2,6.6909656E2,8.121444E0,1.7915934E1,1.4691806E2,4.2264816E2,2.6402119E1,4.619903E3,1.4439964E0,1.2375834E3,2.875493E1,5.3816574E1,1.5252201E1,7.6899567E2,9.359854E0,9.172701E0,1.4642317E2,2.9307582E0,6.2085485E0,9.450398E0,1.3245252E0,3.7526023E0,1.660973E3,2.509144E1,4.9435852E1,3.84158E1,1.3632576E1,8.922935E1,1.4717829E1,1.0997457E3,1.8194635E2,8.0854095E1,1.7234772E2,7.5606956E0,1.4408847E1,1.9180693E1,2.1473708E0,8.427246E0,2.0857262E2,2.3549337E1,5.543324E1,1.838705E2,4.9826665E0,1.5838909E1,2.143495E1,3.0809002E0,4.4957915E3,5.20927E0,3.624638E0,2.3323486E1,7.7842693E0,1.0237911E2,3.6782333E1,1.09548325E2,5.595482E2,4.906088E0,3.2153554E0,1.5528934E1,2.3869998E0,3.3324685E0,1.4358559E2,4.2131372E2,1.3344553E0,6.1879134E0,2.0214205E1],"tree_param":{"num_deleted":"0","num_feature":"12","num_nodes":"119","size_leaf_vector":"1"}},{"base_weights":[-6.9584155E-1,-1.0010668E0,2.2839886E-1,-1.0254897E0,-5.8553904E-1,-7.545693E-1,1.0818396E0,-8.858416E-1,-1.0381542E0,-8.5674655E-1,3.1599793E-1,-9.26857E-1,7.644596E-1,4.0288985E-1,1.1473496E0,-1.0009656E0,1.2820272E0,-9.201541E-1,-1.0417999E0,-8.130849E-2,-9.8195297E-1,1.4732844E0,-8.1143653E-1,6.07238E-1,-1.0294359E0,1.1599841E0,1.3161215E-1,1.1410884E0,-8.798679E-1,9.33309E-1,1.1842514E0,-1.0349817E0,-3.927531E-1,-1.19415425E-1,1.3925904E0,-1.0371424E0,2.124832E0,-3.1319562E-1,-1.0132427E0,-8.6800563E-1,1.0557584E0,5.200389E-1,-9.9585825E-1,1.5958766E0,1.7042679E-1,1.2130324E0,-1.0036496E0,-3.708931E-1,1.2030727E0,-8.032036E-2,-1.039517E0,3.5070702E-1,4.1827387E-1,1.0573303E0,-1.7370118E-2,1.1662937E0,-5.58012E-2,-1.022907E0,1.0659696E0,1.1481758E0,-1.0658183E0,3.558072E-1,8.4079486E-1,-2.706388E-1,-3.129417E-1,6.634202E-1,-2.1446945E-1,2.254844E-1,-4.1056725E-1,3.6103544E-1,5.280933E-1,-3.1268138E-1,-1.1199725E-2,7.0478034E-1,-1.471158E-1,-3.1274575E-1,-2.0216575E-1,-9.55754E-2,-3.0209574E-1,4.657689E-1,-1.1939964E-2,-2.3421405E-1,9.756139E-1,-1.7875992E-1,-3.067948E-1,5.8528835E-1,3.5210735E-1,3.705485E-1,-1.2901238E-1,4.4631347E-2,4.81743E-1,2.4164827E-1,-3.114689E-1,2.742064E-1,-3.0645683E-1,3.7627378E-1,-3.020109E-1,-3.2139778E-1,3.619495E-1,-3.9411974E-3,-3.1216222E-1,2.7289876E-1,-6.2828474E-2,-1.4062658E-2,3.4680346E-1,4.7880855E-1,-2.333461E-2,3.5257593E-1,-9.220538E-2,-1.9995312E-1,2.4711357E-1,1.6424663E-1,-3.142615E-1,-1.7802876E-1,3.9332566E-1,3.4923643E-1,-3.2092234E-1,2.9635596E-1,-3.84373E-1,-4.5979863E-1,3.728754E-1],"categories":[],"categories_nodes":[],"categories_segments":[],"categories_sizes":[],"default_left":[0,0,0,0,0,0,0,0,0,0,0,0,0,0,0,0,0,0,0,0,0,1,0,0,0,1,0,1,0,0,1,0,0,0,0,0,0,0,0,0,1,0,0,0,0,0,0,0,1,0,0,0,0,0,0,1,0,0,0,1,0,0,0,0,0,0,0,0,0,0,0,0,0,0,0,0,0,0,0,0,0,0,0,0,0,0,0,0,0,0,0,0,0,0,0,0,0,0,0,0,0,0,0,0,0,0,0,0,0,0,0,0,0,0,0,0,0,0,0,0,0],"id":4,"left_children":[1,3,5,7,9,11,13,15,17,19,21,23,25,27,29,31,33,35,37,39,41,43,45,47,49,51,53,55,57,59,61,63,65,67,69,71,73,-1,75,77,79,81,83,85,87,89,91,93,95,97,99,-1,101,103,105,107,109,111,113,115,117,-1,119,-1,-1,-1,-1,-1,-1,-1,-1,-1,-1,-1,-1,-1,-1,-1,-1,-1,-1,-1,-1,-1,-1,-1,-1,-1,-1,-1,-1,-1,-1,-1,-1,-1,-1,-1,-1,-1,-1,-1,-1,-1,-1,-1,-1,-1,-1,-1,-1,-1,-1,-1,-1,-1,-1,-1,-1,-1,-1],"loss_changes":[1.0292795E4,2.7774805E2,7.600127E3,4.489453E1,3.7311963E2,1.1026199E3,2.1522021E2,5.4053296E2,9.255859E0,1.1376184E2,4.6227603E2,5.957793E2,1.0734097E2,4.0652985E2,3.382129E1,4.205371E1,1.7116776E1,2.587406E2,3.8085938E-1,1.4770407E2,2.1600769E1,2.7637146E1,7.112245E1,1.3895859E2,3.3838623E1,1.2819824E0,2.295357E1,8.278595E0,4.4786522E1,2.8256677E2,1.296875E0,1.1645508E0,9.41237E1,1.0734327E1,4.9391327E0,3.520752E0,1.6983498E1,0E0,1.5878052E1,7.1271667E0,3.6830902E1,3.7778996E1,1.0112427E1,2.1634613E1,1.0854856E1,6.4619827E0,1.11345825E1,7.6787674E1,1.7990906E1,5.0191914E1,3.671875E0,0E0,1.6517887E0,2.567957E0,1.4181946E1,3.8822937E0,4.077725E0,6.2500763E0,5.34988E0,2.2178162E1,2.9617119E1,0E0,2.3648554E1,0E0,0E0,0E0,0E0,0E0,0E0,0E0,0E0,0E0,0E0,0E0,0E0,0E0,0E0,0E0,0E0,0E0,0E0,0E0,0E0,0E0,0E0,0E0,0E0,0E0,0E0,0E0,0E0,0E0,0E0,0E0,0E0,0E0,0E0,0E0,0E0,0E0,0E0,0E0,0E0,0E0,0E0,0E0,0E0,0E0,0E0,0E0,0E0,0E0,0E0,0E0,0E0,0E0,0E0,0E0,0E0,0E0,0E0],"parents":[2147483647,0,0,1,1,2,2,3,3,4,4,5,5,6,6,7,7,8,8,9,9,10,10,11,11,12,12,13,13,14,14,15,15,16,16,17,17,18,18,19,19,20,20,21,21,22,22,23,23,24,24,25,25,26,26,27,27,28,28,29,29,30,30,31,31,32,32,33,33,34,34,35,35,36,36,38,38,39,39,40,40,41,41,42,42,43,43,44,44,45,45,46,46,47,47,48,48,49,49,50,50,52,52,53,53,54,54,55,55,56,56,57,57,58,58,59,59,60,60,62,62],"right_children":[2,4,6,8,10,12,14,16,18,20,22,24,26,28,30,32,34,36,38,40,42,44,46,48,50,52,54,56,58,60,62,64,66,68,70,72,74,-1,76,78,80,82,84,86,88,90,92,94,96,98,100,-1,102,104,106,108,110,112,114,116,118,-1,120,-1,-1,-1,-1,-1,-1,-1,-1,-1,-1,-1,-1,-1,-1,-1,-1,-1,-1,-1,-1,-1,-1,-1,-1,-1,-1,-1,-1,-1,-1,-1,-1,-1,-1,-1,-1,-1,-1,-1,-1,-1,-1,-1,-1,-1,-1,-1,-1,-1,-1,-1,-1,-1,-1,-1,-1,-1,-1],"split_conditions":[1.3475E2,7.5E1,3E1,6.675E1,1.1597E2,2.8872E2,1.4403E2,1.1215E2,6.382E1,6.82E1,8.735E1,1.101E2,2.1225E2,9.535E1,1.5728E2,9.612E1,3E1,1.1254E2,6.5E1,8.943E1,5.608E1,9.05E1,7.975E1,1.6886E2,1.8E1,2.3155E2,2.1186E2,1.0184E2,1E0,1.0792E2,1.3853E2,4.841E1,5.873E1,1.8E1,6.5E1,1.0712E2,9.176E1,-3.1319562E-1,1.215E2,5.617E1,7.218E1,9.231E1,7.254E1,8.5E1,8.402E1,1E0,7.508E1,8.756E1,1.3035E2,1.5968E2,8.879E1,3.5070702E-1,1.9788E2,7.14E3,2.0721E2,1.1485E2,8.4E1,8.288E1,6.3E1,1.1499E2,1.0161E2,3.558072E-1,1.7851E2,-2.706388E-1,-3.129417E-1,6.634202E-1,-2.1446945E-1,2.254844E-1,-4.1056725E-1,3.6103544E-1,5.280933E-1,-3.1268138E-1,-1.1199725E-2,7.0478034E-1,-1.471158E-1,-3.1274575E-1,-2.0216575E-1,-9.55754E-2,-3.0209574E-1,4.657689E-1,-1.1939964E-2,-2.3421405E-1,9.756139E-1,-1.7875992E-1,-3.067948E-1,5.8528835E-1,3.5210735E-1,3.705485E-1,-1.2901238E-1,4.4631347E-2,4.81743E-1,2.4164827E-1,-3.114689E-1,2.742064E-1,-3.0645683E-1,3.7627378E-1,-3.020109E-1,-3.2139778E-1,3.619495E-1,-3.9411974E-3,-3.1216222E-1,2.7289876E-1,-6.2828474E-2,-1.4062658E-2,3.4680346E-1,4.7880855E-1,-2.333461E-2,3.5257593E-1,-9.220538E-2,-1.9995312E-1,2.4711357E-1,1.6424663E-1,-3.142615E-1,-1.7802876E-1,3.9332566E-1,3.4923643E-1,-3.2092234E-1,2.9635596E-1,-3.84373E-1,-4.5979863E-1,3.728754E-1],"split_indices":[2,0,0,4,2,2,2,2,6,4,4,4,4,4,2,2,0,2,0,2,6,6,6,2,0,10,6,8,1,4,10,4,6,0,0,2,4,0,2,4,6,2,8,0,8,1,8,4,8,2,8,0,4,5,8,6,0,6,0,10,8,0,2,0,0,0,0,0,0,0,0,0,0,0,0,0,0,0,0,0,0,0,0,0,0,0,0,0,0,0,0,0,0,0,0,0,0,0,0,0,0,0,0,0,0,0,0,0,0,0,0,0,0,0,0,0,0,0,0,0,0],"split_type":[0,0,0,0,0,0,0,0,0,0,0,0,0,0,0,0,0,0,0,0,0,0,0,0,0,0,0,0,0,0,0,0,0,0,0,0,0,0,0,0,0,0,0,0,0,0,0,0,0,0,0,0,0,0,0,0,0,0,0,0,0,0,0,0,0,0,0,0,0,0,0,0,0,0,0,0,0,0,0,0,0,0,0,0,0,0,0,0,0,0,0,0,0,0,0,0,0,0,0,0,0,0,0,0,0,0,0,0,0,0,0,0,0,0,0,0,0,0,0,0,0],"sum_hessian":[3.648434E4,2.742673E4,9.057608E3,2.5902809E4,1.523922E3,4.2094277E3,4.8481807E3,2.1596826E3,2.3743125E4,1.1715398E3,3.523822E2,3.78098E3,4.284477E2,4.272533E2,4.4209272E3,2.0512878E3,1.0839475E2,7.191485E2,2.3023977E4,1.6309523E2,1.0084446E3,1.7373763E2,1.7864458E2,2.366653E2,3.5443147E3,2.6314883E2,1.6529886E2,2.7125977E2,1.5599352E2,6.539773E2,3.76695E3,1.9419753E3,1.0931246E2,7.9203496E0,1.004744E2,6.93176E2,2.5972418E1,2.1354195E4,1.6697811E3,9.653952E1,6.655572E1,8.916545E0,9.99528E2,1.585902E2,1.514743E1,1.5030126E1,1.6361446E2,8.973406E1,1.4693124E2,3.7345093E1,3.5069697E3,2.594113E2,3.7375598E0,2.2069641E1,1.4322922E2,2.6569016E2,5.5696087E0,1.4575345E2,1.0240072E1,5.908935E2,6.3083763E1,3.745168E3,2.1781946E1,1.18796234E2,1.8231791E3,1.1388177E1,9.7924286E1,4.9010973E0,3.0192525E0,6.916946E1,3.1304941E1,6.8959607E2,3.5799925E0,2.4013308E1,1.95911E0,1.5354003E3,1.3438081E2,2.015488E1,7.638464E1,4.5503864E1,2.1051851E1,6.5244055E0,2.3921394E0,6.420364E1,9.353244E2,8.4173706E1,7.441648E1,5.080975E0,1.0066456E1,4.423386E0,1.0606739E1,2.6505415E0,1.6096391E2,3.0027863E1,5.9706196E1,1.440283E2,2.9029467E0,2.119209E1,1.6153004E1,3.507977E0,3.5034617E3,1.8444562E0,1.8931037E0,1.8535943E0,2.0216047E1,4.2520547E0,1.3897716E2,2.6428586E2,1.4042964E0,3.430056E0,2.1395524E0,1.9229983E0,1.4383044E2,1.1350353E0,9.105037E0,5.871474E2,3.7461214E0,5.6486764E0,5.7435085E1,2.7484283E0,1.9033518E1],"tree_param":{"num_deleted":"0","num_feature":"12","num_nodes":"121","size_leaf_vector":"1"}},{"base_weights":[-6.811545E-1,-9.8448145E-1,2.1450129E-1,-1.011151E0,-5.520277E-1,-7.31777E-1,1.0208118E0,-8.760163E-1,-1.0266037E0,-8.7581253E-1,1.7456087E-1,-9.111612E-1,6.557467E-1,4.3806505E-1,1.0914359E0,-9.8577344E-1,1.2161478E0,-9.166399E-1,-1.0303257E0,7.3978245E-2,-9.6781236E-1,1.254546E0,-8.7504035E-1,5.4566574E-1,-1.0159401E0,1.0839044E0,1.0235922E-1,1.0545644E0,-8.065962E-1,8.8489145E-1,1.1225219E0,-1.0179946E0,-3.657191E-1,1.309215E0,-4.6480832E-1,-1.0223372E0,1.8575326E0,-3.0934533E-1,-9.4804406E-1,-8.420062E-1,9.1438556E-1,6.5342784E-1,-9.885972E-1,1.1878929E-1,1.5474665E0,1.004217E0,-9.859644E-1,-5.881769E-1,9.81575E-1,-7.802999E-2,-1.0262499E0,1.1266448E0,7.5987196E-1,1.0600568E0,9.844369E-3,5.48452E-1,3.449757E-1,7.5105673E-1,-1.0224352E0,1.0985575E0,-9.7851956E-1,1.1245568E0,7.4820167E-1,-2.468804E-1,-3.084434E-1,3.74435E-1,-2.37835E-1,3.173455E-1,5.3307986E-1,2.1585347E-1,-3.1883216E-1,-3.0931228E-1,-6.150432E-2,7.717523E-1,3.535583E-1,1.9219321E-1,-3.070724E-1,-8.937491E-2,-3.0269045E-1,4.0743223E-1,-1.5261106E-1,-2.1195176E-1,6.3440484E-1,-1.0768829E-1,-3.0109754E-1,2.3260428E-1,-1.3453875E-1,5.476061E-1,3.5320255E-1,4.194429E-1,-2.6791664E-2,5.392714E-2,-3.04985E-1,2.4801686E-1,-3.0087155E-1,3.331778E-1,-1.7994304E-1,-3.111304E-1,3.362773E-1,-1.420301E-1,-3.0887884E-1,1.5568885E-1,3.395939E-1,2.627514E-1,-3.1114392E-2,9.24781E-2,3.3085933E-1,6.408333E-2,-9.6356064E-2,-1.5632446E-1,2.6301476E-1,-2.1732104E-1,3.14099E-1,-3.1577376E-1,6.4071976E-2,3.3513585E-1,-1.6591719E-1,1.9838636E-1,-3.903979E-1,3.3905265E-1,3.043842E-1,-3.676257E-1,3.453519E-1],"categories":[],"categories_nodes":[],"categories_segments":[],"categories_sizes":[],"default_left":[0,0,0,0,0,0,0,0,0,0,0,0,0,0,0,0,1,0,0,0,0,0,0,0,0,0,0,0,0,0,1,0,0,0,0,0,0,0,0,0,1,0,0,0,0,0,0,0,1,0,0,0,1,0,0,0,0,0,0,1,0,0,0,0,0,0,0,0,0,0,0,0,0,0,0,0,0,0,0,0,0,0,0,0,0,0,0,0,0,0,0,0,0,0,0,0,0,0,0,0,0,0,0,0,0,0,0,0,0,0,0,0,0,0,0,0,0,0,0,0,0,0,0],"id":5,"left_children":[1,3,5,7,9,11,13,15,17,19,21,23,25,27,29,31,33,35,37,39,41,43,45,47,49,51,53,55,57,59,61,63,65,67,69,71,73,-1,75,77,79,81,83,85,87,89,91,93,95,97,99,101,103,105,107,109,-1,111,113,115,117,119,121,-1,-1,-1,-1,-1,-1,-1,-1,-1,-1,-1,-1,-1,-1,-1,-1,-1,-1,-1,-1,-1,-1,-1,-1,-1,-1,-1,-1,-1,-1,-1,-1,-1,-1,-1,-1,-1,-1,-1,-1,-1,-1,-1,-1,-1,-1,-1,-1,-1,-1,-1,-1,-1,-1,-1,-1,-1,-1,-1,-1],"loss_changes":[7.5016865E3,2.3733594E2,5.3312095E3,3.966797E1,2.825467E2,8.007435E2,1.547832E2,4.6054285E2,6.1875E0,7.264154E1,4.2147827E2,4.351521E2,8.722725E1,3.150336E2,2.0605957E1,3.7611572E1,1.627742E1,1.7185733E2,1.6601562E-1,5.794316E1,2.616272E1,6.0761414E1,4.0317337E1,9.531735E1,2.560669E1,2.02063E0,1.4333779E1,1.2604889E1,4.6556686E1,1.7817072E2,1.3830566E0,2.7312012E0,6.679316E1,9.310165E0,5.0083804E0,3.7651978E0,7.46817E0,0E0,2.222583E1,2.974987E0,2.5451782E1,2.1738098E1,6.7335815E0,1.4739562E1,1.2821045E1,4.867838E0,6.5662537E0,3.2430862E1,2.8990921E1,3.561874E1,4.373047E0,7.324219E-4,2.8225698E0,1.18709564E-1,1.0095115E1,1.639322E1,0E0,8.247707E0,4.6973495E0,1.2865936E1,2.5360977E1,6.459961E-1,1.6344896E1,0E0,0E0,0E0,0E0,0E0,0E0,0E0,0E0,0E0,0E0,0E0,0E0,0E0,0E0,0E0,0E0,0E0,0E0,0E0,0E0,0E0,0E0,0E0,0E0,0E0,0E0,0E0,0E0,0E0,0E0,0E0,0E0,0E0,0E0,0E0,0E0,0E0,0E0,0E0,0E0,0E0,0E0,0E0,0E0,0E0,0E0,0E0,0E0,0E0,0E0,0E0,0E0,0E0,0E0,0E0,0E0,0E0,0E0,0E0,0E0],"parents":[2147483647,0,0,1,1,2,2,3,3,4,4,5,5,6,6,7,7,8,8,9,9,10,10,11,11,12,12,13,13,14,14,15,15,16,16,17,17,18,18,19,19,20,20,21,21,22,22,23,23,24,24,25,25,26,26,27,27,28,28,29,29,30,30,31,31,32,32,33,33,34,34,35,35,36,36,38,38,39,39,40,40,41,41,42,42,43,43,44,44,45,45,46,46,47,47,48,48,49,49,50,50,51,51,52,52,53,53,54,54,55,55,57,57,58,58,59,59,60,60,61,61,62,62],"right_children":[2,4,6,8,10,12,14,16,18,20,22,24,26,28,30,32,34,36,38,40,42,44,46,48,50,52,54,56,58,60,62,64,66,68,70,72,74,-1,76,78,80,82,84,86,88,90,92,94,96,98,100,102,104,106,108,110,-1,112,114,116,118,120,122,-1,-1,-1,-1,-1,-1,-1,-1,-1,-1,-1,-1,-1,-1,-1,-1,-1,-1,-1,-1,-1,-1,-1,-1,-1,-1,-1,-1,-1,-1,-1,-1,-1,-1,-1,-1,-1,-1,-1,-1,-1,-1,-1,-1,-1,-1,-1,-1,-1,-1,-1,-1,-1,-1,-1,-1,-1,-1,-1,-1],"split_conditions":[1.3475E2,7.5E1,3E1,6.866E1,1.1103E2,2.8872E2,1.4616E2,1.1215E2,6.506E1,6.315E1,8.882E1,1.101E2,2.1225E2,9.535E1,1.5728E2,9.798E1,8.308E1,1.1597E2,1.3188E2,8.394E1,5.438E1,1E0,8.001E1,1.5502E2,1.8E1,1.9361E2,2.0211E2,1E0,9.216E1,1.0511E2,1.3853E2,4.841E1,5.437E1,6.5E1,6.817E1,1.0712E2,1.2534E2,-3.0934533E-1,7.954E1,5.211E1,6.727E1,8.626E1,6.248E1,7.799E1,1.2534E2,8.534E1,7.657E1,7.826E1,1.2285E2,1.5968E2,1.0354E2,1.38E3,2.1783E2,7.14E3,2.6606E2,6.6E1,3.449757E-1,6.5E1,1E0,1.1526E2,1.0431E2,1.2701E2,1.7851E2,-2.468804E-1,-3.084434E-1,3.74435E-1,-2.37835E-1,3.173455E-1,5.3307986E-1,2.1585347E-1,-3.1883216E-1,-3.0931228E-1,-6.150432E-2,7.717523E-1,3.535583E-1,1.9219321E-1,-3.070724E-1,-8.937491E-2,-3.0269045E-1,4.0743223E-1,-1.5261106E-1,-2.1195176E-1,6.3440484E-1,-1.0768829E-1,-3.0109754E-1,2.3260428E-1,-1.3453875E-1,5.476061E-1,3.5320255E-1,4.194429E-1,-2.6791664E-2,5.392714E-2,-3.04985E-1,2.4801686E-1,-3.0087155E-1,3.331778E-1,-1.7994304E-1,-3.111304E-1,3.362773E-1,-1.420301E-1,-3.0887884E-1,1.5568885E-1,3.395939E-1,2.627514E-1,-3.1114392E-2,9.24781E-2,3.3085933E-1,6.408333E-2,-9.6356064E-2,-1.5632446E-1,2.6301476E-1,-2.1732104E-1,3.14099E-1,-3.1577376E-1,6.4071976E-2,3.3513585E-1,-1.6591719E-1,1.9838636E-1,-3.903979E-1,3.3905265E-1,3.043842E-1,-3.676257E-1,3.453519E-1],"split_indices":[2,0,0,4,2,2,2,2,6,4,4,4,4,4,2,2,8,2,2,2,6,1,8,2,0,4,6,1,6,4,10,4,4,0,6,2,2,0,4,4,8,2,8,4,2,6,6,4,6,2,6,7,8,5,4,0,0,0,1,6,6,4,2,0,0,0,0,0,0,0,0,0,0,0,0,0,0,0,0,0,0,0,0,0,0,0,0,0,0,0,0,0,0,0,0,0,0,0,0,0,0,0,0,0,0,0,0,0,0,0,0,0,0,0,0,0,0,0,0,0,0,0,0],"split_type":[0,0,0,0,0,0,0,0,0,0,0,0,0,0,0,0,0,0,0,0,0,0,0,0,0,0,0,0,0,0,0,0,0,0,0,0,0,0,0,0,0,0,0,0,0,0,0,0,0,0,0,0,0,0,0,0,0,0,0,0,0,0,0,0,0,0,0,0,0,0,0,0,0,0,0,0,0,0,0,0,0,0,0,0,0,0,0,0,0,0,0,0,0,0,0,0,0,0,0,0,0,0,0,0,0,0,0,0,0,0,0,0,0,0,0,0,0,0,0,0,0,0,0],"sum_hessian":[2.7610793E4,2.062555E4,6.985243E3,1.9426193E4,1.1993562E3,3.2137314E3,3.771512E3,1.9993661E3,1.7426828E4,8.2950433E2,3.6985187E2,2.8461182E3,3.676133E2,4.084482E2,3.3630637E3,1.900208E3,9.915806E1,5.7862244E2,1.6848205E4,7.327025E1,7.562341E2,1.8219125E2,1.876606E2,1.9068341E2,2.6554346E3,2.0671701E2,1.608963E2,2.7325412E2,1.351941E2,4.4379935E2,2.9192644E3,1.8057313E3,9.447674E1,9.416567E1,4.992387E0,5.579941E2,2.062835E1,1.6669447E4,1.7875883E2,3.505781E1,3.8212433E1,9.187179E0,7.470469E2,3.7642696E1,1.4454857E2,1.0010538E1,1.7765007E2,5.2854465E1,1.3782895E2,2.896499E1,2.6264697E3,1.8043971E2,2.6277302E1,1.3252324E1,1.4764397E2,4.439127E1,2.2886285E2,1.615172E1,1.1904238E2,3.985146E2,4.5284775E1,2.9014866E3,1.777781E1,9.337434E1,1.7123569E3,1.9367233E1,7.5109505E1,6.3367527E1,3.079815E1,1.6067736E0,3.3856132E0,5.5185583E2,6.1382627E0,8.689687E0,1.1938663E1,7.7734036E0,1.7098543E2,8.885708E0,2.6172104E1,2.9164541E1,9.047894E0,5.0260935E0,4.1610847E0,1.8032425E1,7.2901447E2,1.7277836E1,2.0364859E1,8.0316055E1,6.4232506E1,7.1546206E0,2.8559177E0,4.4269223E0,1.7322314E2,1.17555275E1,4.1098938E1,1.277076E2,1.012134E1,1.6167349E1,1.2797642E1,1.6659578E1,2.60981E3,2.4255338E0,1.7801418E2,2.315391E1,3.1233904E0,1.1557552E0,1.2096569E1,9.160878E1,5.6035194E1,1.0287063E1,3.410421E1,2.456518E0,1.3695201E1,1.1635316E2,2.6892285E0,3.9440558E2,4.108992E0,7.2758813E0,3.8008892E1,2.7515864E3,1.4990018E2,2.6683164E0,1.5109493E1],"tree_param":{"num_deleted":"0","num_feature":"12","num_nodes":"123","size_leaf_vector":"1"}},{"base_weights":[-6.684494E-1,-9.7052455E-1,2.0354173E-1,-9.998284E-1,-5.2019304E-1,-7.081071E-1,9.7598684E-1,-8.533404E-1,-1.0168549E0,1.403176E-1,-8.519962E-1,-9.2234766E-1,4.1116357E-1,4.101309E-1,1.0457814E0,-9.782762E-1,8.9608854E-1,-8.570134E-1,-1.0205032E0,-7.757026E-1,1.2386291E0,-9.4324994E-1,1.07844815E-1,7.496477E-1,-1.005983E0,1.167702E0,-1.6358764E-1,9.8647195E-1,-7.730327E-1,8.7949175E-1,1.0912229E0,-1.0096819E0,-4.568011E-1,-6.007082E-1,1.0814626E0,-3.0601388E-1,1.7948831E0,-6.449712E-1,-1.0208945E0,1.3845576E-1,-9.5114726E-1,1.367017E0,-1.6586459E-1,-3.8585973E-3,-1.002365E0,8.4376127E-1,-8.8319325E-1,-4.9489266E-1,1.0009226E0,6.198988E-1,-1.017547E0,1.8310177E0,1.0600839E0,-3.0161655E-1,1.147055E-1,4.465144E-1,3.3166426E-1,5.006373E-1,-1.0263947E0,1.0570543E0,-7.6473284E-1,3.275454E-1,8.775994E-2,-2.3919149E-1,-3.0640918E-1,3.0391157E-1,-2.524023E-1,2.1354918E-1,-2.9889315E-1,3.757417E-1,-6.7763895E-2,5.9963834E-1,-4.9237248E-2,-2.8586474E-1,4.168205E-1,-3.0684918E-1,-2.906236E-1,-2.591985E-1,3.2212776E-1,9.2126526E-2,-3.0245388E-1,1.5198398E-1,4.5149192E-1,1.6808854E-1,-2.5251415E-1,-2.6187217E-1,5.292744E-1,9.5296234E-2,-3.0163977E-1,3.1769493E-1,-1.2549001E-1,1.143409E-1,-3.004975E-1,2.7948E-1,-2.8526345E-1,3.1838053E-1,-6.741556E-2,-2.5607416E-1,3.966178E-1,-9.506805E-2,-3.0635297E-1,6.529877E-1,-2.1758467E-1,3.199235E-1,1.1903851E-1,3.435711E-1,7.822916E-3,2.4836633E-1,-1.0606065E-1,-9.621758E-2,3.6172017E-1,1.0555969E-1,-3.1518325E-1,3.200585E-1,-2.7742395E-1,2.2555025E-1,-4.1323116E-1],"categories":[],"categories_nodes":[],"categories_segments":[],"categories_sizes":[],"default_left":[0,0,0,0,0,0,0,0,0,0,0,0,0,0,0,0,0,0,0,0,1,0,0,0,0,0,0,0,0,0,0,0,0,0,1,0,0,0,0,0,0,0,0,0,0,1,0,0,0,0,0,0,1,0,0,0,0,0,0,1,0,0,0,0,0,0,0,0,0,0,0,0,0,0,0,0,0,0,0,0,0,0,0,0,0,0,0,0,0,0,0,0,0,0,0,0,0,0,0,0,0,0,0,0,0,0,0,0,0,0,0,0,0,0,0,0,0],"id":6,"left_children":[1,3,5,7,9,11,13,15,17,19,21,23,25,27,29,31,33,35,37,39,41,43,45,47,49,51,53,55,57,59,61,63,65,67,69,-1,71,73,75,77,79,81,83,85,87,89,91,93,95,97,99,101,103,-1,105,107,-1,109,111,113,115,-1,-1,-1,-1,-1,-1,-1,-1,-1,-1,-1,-1,-1,-1,-1,-1,-1,-1,-1,-1,-1,-1,-1,-1,-1,-1,-1,-1,-1,-1,-1,-1,-1,-1,-1,-1,-1,-1,-1,-1,-1,-1,-1,-1,-1,-1,-1,-1,-1,-1,-1,-1,-1,-1,-1,-1],"loss_changes":[5.491451E3,2.0380664E2,3.7784048E3,3.5387695E1,2.0789685E2,5.905454E2,1.142771E2,3.3306982E2,6.7177734E0,3.2075784E2,5.5387817E1,2.8966602E2,1.724224E2,2.193474E2,1.8572266E1,2.2778809E1,2.8903885E1,1.3011934E2,1.2109375E0,2.8027443E1,2.6361465E1,3.2010498E1,4.136596E1,3.1453606E1,3.7633545E1,1.0274918E1,5.3052498E1,1.33936615E1,3.457788E1,1.6427667E2,6.437988E-1,2.5043945E0,4.7444534E1,6.869712E0,2.061972E1,0E0,7.3378105E0,1.1321123E1,2.9101562E-1,2.8004316E1,1.0790283E1,1.5012955E1,6.866878E0,5.5527027E1,2.5394897E0,9.263599E0,4.0098457E0,1.2138175E1,6.354973E0,1.6151394E1,4.6468506E0,2.1468796E1,2.0478821E-1,0E0,1.5563176E1,1.2711945E1,0E0,1.09191675E1,3.3192139E0,1.0816711E1,5.2284042E1,0E0,0E0,0E0,0E0,0E0,0E0,0E0,0E0,0E0,0E0,0E0,0E0,0E0,0E0,0E0,0E0,0E0,0E0,0E0,0E0,0E0,0E0,0E0,0E0,0E0,0E0,0E0,0E0,0E0,0E0,0E0,0E0,0E0,0E0,0E0,0E0,0E0,0E0,0E0,0E0,0E0,0E0,0E0,0E0,0E0,0E0,0E0,0E0,0E0,0E0,0E0,0E0,0E0,0E0,0E0,0E0],"parents":[2147483647,0,0,1,1,2,2,3,3,4,4,5,5,6,6,7,7,8,8,9,9,10,10,11,11,12,12,13,13,14,14,15,15,16,16,17,17,18,18,19,19,20,20,21,21,22,22,23,23,24,24,25,25,26,26,27,27,28,28,29,29,30,30,31,31,32,32,33,33,34,34,36,36,37,37,38,38,39,39,40,40,41,41,42,42,43,43,44,44,45,45,46,46,47,47,48,48,49,49,50,50,51,51,52,52,54,54,55,55,57,57,58,58,59,59,60,60],"right_children":[2,4,6,8,10,12,14,16,18,20,22,24,26,28,30,32,34,36,38,40,42,44,46,48,50,52,54,56,58,60,62,64,66,68,70,-1,72,74,76,78,80,82,84,86,88,90,92,94,96,98,100,102,104,-1,106,108,-1,110,112,114,116,-1,-1,-1,-1,-1,-1,-1,-1,-1,-1,-1,-1,-1,-1,-1,-1,-1,-1,-1,-1,-1,-1,-1,-1,-1,-1,-1,-1,-1,-1,-1,-1,-1,-1,-1,-1,-1,-1,-1,-1,-1,-1,-1,-1,-1,-1,-1,-1,-1,-1,-1,-1,-1,-1,-1,-1],"split_conditions":[1.3475E2,7.5E1,3E1,6.866E1,7.772E1,2.6336E2,1.4616E2,1.0772E2,6.451E1,1.0013E2,1.2623E2,1.8E1,2.0238E2,9.535E1,1.6428E2,9.612E1,3E1,1.0712E2,5.231E1,5.759E1,8.537E1,7.288E1,1.009E2,1.4616E2,9.172E1,2.8872E2,2.8872E2,1E0,9.66E1,1.0511E2,1.5583E2,4.841E1,5.437E1,6.563E1,7.975E1,-3.0601388E-1,8.798E1,1.0451E2,1.2623E2,7.807E1,5.438E1,1E0,8.171E1,1.0423E2,5.208E1,9.387E1,8.71E1,7.826E1,1.2028E2,1.6428E2,1.0021E2,1.3995E2,2.3963E2,-3.0161655E-1,2.0721E2,8.649E1,3.3166426E-1,8.2E1,9.073E1,1.1877E2,1.0818E2,3.275454E-1,8.775994E-2,-2.3919149E-1,-3.0640918E-1,3.0391157E-1,-2.524023E-1,2.1354918E-1,-2.9889315E-1,3.757417E-1,-6.7763895E-2,5.9963834E-1,-4.9237248E-2,-2.8586474E-1,4.168205E-1,-3.0684918E-1,-2.906236E-1,-2.591985E-1,3.2212776E-1,9.2126526E-2,-3.0245388E-1,1.5198398E-1,4.5149192E-1,1.6808854E-1,-2.5251415E-1,-2.6187217E-1,5.292744E-1,9.5296234E-2,-3.0163977E-1,3.1769493E-1,-1.2549001E-1,1.143409E-1,-3.004975E-1,2.7948E-1,-2.8526345E-1,3.1838053E-1,-6.741556E-2,-2.5607416E-1,3.966178E-1,-9.506805E-2,-3.0635297E-1,6.529877E-1,-2.1758467E-1,3.199235E-1,1.1903851E-1,3.435711E-1,7.822916E-3,2.4836633E-1,-1.0606065E-1,-9.621758E-2,3.6172017E-1,1.0555969E-1,-3.1518325E-1,3.200585E-1,-2.7742395E-1,2.2555025E-1,-4.1323116E-1],"split_indices":[2,0,0,4,4,2,2,2,8,2,2,0,4,4,2,2,0,2,10,4,8,8,4,2,6,2,2,1,6,4,4,4,4,6,6,0,4,2,2,2,6,1,6,2,6,6,8,4,4,2,8,4,10,0,8,4,0,0,10,10,6,0,0,0,0,0,0,0,0,0,0,0,0,0,0,0,0,0,0,0,0,0,0,0,0,0,0,0,0,0,0,0,0,0,0,0,0,0,0,0,0,0,0,0,0,0,0,0,0,0,0,0,0,0,0,0,0],"split_type":[0,0,0,0,0,0,0,0,0,0,0,0,0,0,0,0,0,0,0,0,0,0,0,0,0,0,0,0,0,0,0,0,0,0,0,0,0,0,0,0,0,0,0,0,0,0,0,0,0,0,0,0,0,0,0,0,0,0,0,0,0,0,0,0,0,0,0,0,0,0,0,0,0,0,0,0,0,0,0,0,0,0,0,0,0,0,0,0,0,0,0,0,0,0,0,0,0,0,0,0,0,0,0,0,0,0,0,0,0,0,0,0,0,0,0,0,0],"sum_hessian":[2.0846045E4,1.5482488E4,5.3635566E3,1.4535425E4,9.4706415E2,2.4601462E3,2.9034104E3,1.5188733E3,1.3016552E4,3.1686584E2,6.3019824E2,2.0650493E3,3.950969E2,3.195499E2,2.5838604E3,1.4180442E3,1.00829094E2,2.957264E2,1.2720825E4,1.729308E2,1.4393504E2,5.755016E2,5.469666E1,9.799619E1,1.9670532E3,1.7012788E2,2.2496902E2,2.1499033E2,1.04559555E2,5.589138E2,2.0249467E3,1.336611E3,8.14332E1,1.0864394E1,8.996471E1,2.791785E2,1.6547932E1,1.4959587E1,1.2705865E4,2.7878756E1,1.4505205E2,1.3190407E2,1.2030974E1,3.413474E1,5.413669E2,3.1473757E1,2.32229E1,1.6299047E1,8.169714E1,1.3520238E1,1.953533E3,2.1513437E1,1.4861444E2,5.5245583E1,1.6972343E2,3.970317E1,1.7528716E2,1.7186377E1,8.737318E1,5.04761E2,5.4152863E1,2.0230721E3,1.8744918E0,7.3298874E1,1.263312E3,1.6547752E1,6.4885445E1,2.3310432E0,8.533351E0,7.959507E1,1.0369631E1,1.4969463E1,1.578468E0,1.3454759E1,1.5048287E0,1.2233084E4,4.7278177E2,1.3493149E1,1.4385607E1,6.099584E0,1.3895247E2,1.8872484E1,1.13031586E2,5.8820443E0,6.1489296E0,2.3225426E1,1.0909311E1,1.0310432E0,5.403358E2,2.7025888E1,4.447869E0,1.7995657E0,2.1423336E1,3.6954024E0,1.2603645E1,7.7991264E1,3.7058802E0,4.2938895E0,9.226348E0,1.0522756E1,1.9430103E3,1.908209E1,2.431346E0,1.4660805E2,2.0063968E0,1.2496715E1,1.5722673E2,2.6863092E1,1.2840079E1,8.190476E0,8.9959E0,1.2750181E0,8.609816E1,5.0273474E2,2.0262227E0,1.5517311E1,3.863555E1],"tree_param":{"num_deleted":"0","num_feature":"12","num_nodes":"117","size_leaf_vector":"1"}},{"base_weights":[-6.564971E-1,-9.576316E-1,1.9486395E-1,-9.89654E-1,-4.9130088E-1,-6.823338E-1,9.4169086E-1,-8.533104E-1,-1.0122999E0,-8.500455E-1,7.604642E-2,-9.09648E-1,3.5260856E-1,3.86E-1,1.0121241E0,-9.5795935E-1,1.2022699E0,-8.663349E-1,-1.0154374E0,2.8574595E-1,-9.350772E-1,1.0645263E0,-7.307454E-1,7.0450085E-1,-9.9414676E-1,1.1681048E0,-1.0727384E-1,-5.131701E-1,1.065829E0,8.185852E-1,1.0576535E0,-1.003586E0,-4.5107037E-1,8.2063603E-1,1.7651883E0,-1.0040005E0,1.0505012E0,-3.0495816E-1,-9.110447E-1,-7.1234584E-1,1.4078431E0,9.4323814E-2,-9.7826105E-1,1.1749682E0,-5.741535E-1,5.5516315E-1,-9.498494E-1,9.513796E-1,-4.544099E-1,4.1716936E-1,-1.0080787E0,1.908654E0,1.0426081E0,-2.981954E-1,1.1060309E-1,5.5343986E-1,-9.2538804E-1,1.0736835E0,1.5320729E-2,1.0392804E0,-5.9966373E-1,1.0585159E0,6.261218E-2,-2.202058E-1,-3.045404E-1,4.034724E-1,-2.182144E-1,-1.8237586E-1,2.9070896E-1,6.9342947E-1,3.9136392E-1,-3.0375838E-1,-8.446514E-3,4.1046473E-1,-9.629159E-2,2.4025881E-1,-2.9914933E-1,9.785782E-2,-2.703673E-1,6.8355626E-1,1.5354605E-1,3.0312124E-1,-1.986763E-1,7.4893297E-3,-2.9607818E-1,1.6307087E-1,3.9255467E-1,2.0838228E-1,-2.5726795E-1,-1.15057856E-1,3.432998E-1,9.637407E-2,-2.9668415E-1,3.5393156E-2,3.127799E-1,-2.9948434E-1,2.7112985E-1,-2.592061E-1,3.4040707E-1,-1.3456476E-1,-3.0503455E-1,6.3017696E-1,-1.5461251E-1,9.162754E-2,3.1539318E-1,2.3567642E-1,-3.537037E-3,-9.021039E-2,2.352618E-1,1.645883E-1,-3.049968E-1,3.2338923E-1,9.026553E-2,3.151034E-1,-3.9221603E-2,2.555649E-1,-3.6565048E-1,3.1826752E-1,2.334574E-1],"categories":[],"categories_nodes":[],"categories_segments":[],"categories_sizes":[],"default_left":[0,0,0,0,0,0,0,0,0,0,0,0,0,0,0,0,0,0,0,0,0,1,0,0,0,0,0,0,1,0,0,0,0,0,0,0,1,0,0,0,0,1,0,0,0,0,0,0,0,0,0,0,0,0,0,0,0,0,0,1,0,0,0,0,0,0,0,0,0,0,0,0,0,0,0,0,0,0,0,0,0,0,0,0,0,0,0,0,0,0,0,0,0,0,0,0,0,0,0,0,0,0,0,0,0,0,0,0,0,0,0,0,0,0,0,0,0,0,0],"id":7,"left_children":[1,3,5,7,9,11,13,15,17,19,21,23,25,27,29,31,33,35,37,39,41,43,45,47,49,51,53,55,57,59,61,63,65,67,69,71,73,-1,75,77,79,81,83,85,87,89,91,93,95,97,99,101,103,-1,105,107,109,111,-1,113,115,117,-1,-1,-1,-1,-1,-1,-1,-1,-1,-1,-1,-1,-1,-1,-1,-1,-1,-1,-1,-1,-1,-1,-1,-1,-1,-1,-1,-1,-1,-1,-1,-1,-1,-1,-1,-1,-1,-1,-1,-1,-1,-1,-1,-1,-1,-1,-1,-1,-1,-1,-1,-1,-1,-1,-1,-1,-1],"loss_changes":[4.031397E3,1.729707E2,2.6927212E3,3.2692383E1,1.5238145E2,4.4502722E2,8.64989E1,3.3552515E2,3.3876953E0,4.455313E1,2.3270262E2,2.1213281E2,1.2806248E2,1.5419185E2,1.6490479E1,3.376819E1,1.4823387E1,5.4575165E1,1.09375E-1,3.763038E1,1.9067047E1,2.4400772E1,4.5808846E1,2.266246E1,2.9392334E1,9.449829E0,4.2427814E1,4.8389206E1,1.088562E0,1.194193E2,9.4421387E-1,3.4781494E0,6.251613E1,1.055455E1,4.4664993E0,1.5503998E0,6.5738773E0,0E0,1.6100075E1,3.81944E0,1.11069145E1,1.3212255E1,3.5870667E0,9.672913E0,3.813691E0,1.3727888E1,7.1604004E0,4.7710533E0,1.1481268E1,1.487122E1,6.6503906E0,8.82132E0,3.6827087E-1,0E0,1.4610197E1,6.3419714E0,1.117392E1,1.4640808E-1,0E0,4.393738E0,4.754147E1,2.3266602E-1,0E0,0E0,0E0,0E0,0E0,0E0,0E0,0E0,0E0,0E0,0E0,0E0,0E0,0E0,0E0,0E0,0E0,0E0,0E0,0E0,0E0,0E0,0E0,0E0,0E0,0E0,0E0,0E0,0E0,0E0,0E0,0E0,0E0,0E0,0E0,0E0,0E0,0E0,0E0,0E0,0E0,0E0,0E0,0E0,0E0,0E0,0E0,0E0,0E0,0E0,0E0,0E0,0E0,0E0,0E0,0E0,0E0],"parents":[2147483647,0,0,1,1,2,2,3,3,4,4,5,5,6,6,7,7,8,8,9,9,10,10,11,11,12,12,13,13,14,14,15,15,16,16,17,17,18,18,19,19,20,20,21,21,22,22,23,23,24,24,25,25,26,26,27,27,28,28,29,29,30,30,31,31,32,32,33,33,34,34,35,35,36,36,38,38,39,39,40,40,41,41,42,42,43,43,44,44,45,45,46,46,47,47,48,48,49,49,50,50,51,51,52,52,54,54,55,55,56,56,57,57,59,59,60,60,61,61],"right_children":[2,4,6,8,10,12,14,16,18,20,22,24,26,28,30,32,34,36,38,40,42,44,46,48,50,52,54,56,58,60,62,64,66,68,70,72,74,-1,76,78,80,82,84,86,88,90,92,94,96,98,100,102,104,-1,106,108,110,112,-1,114,116,118,-1,-1,-1,-1,-1,-1,-1,-1,-1,-1,-1,-1,-1,-1,-1,-1,-1,-1,-1,-1,-1,-1,-1,-1,-1,-1,-1,-1,-1,-1,-1,-1,-1,-1,-1,-1,-1,-1,-1,-1,-1,-1,-1,-1,-1,-1,-1,-1,-1,-1,-1,-1,-1,-1,-1,-1,-1],"split_conditions":[1.3475E2,7.5E1,3E1,7.188E1,1.0712E2,2.6336E2,1.4616E2,1.1505E2,6.314E1,6.159E1,8.429E1,1.8E1,1.9361E2,1E0,1.62E2,9.612E1,6.5E1,1.1254E2,1.3188E2,8.649E1,5.617E1,9.234E1,8.837E1,1.1179E2,9.49E1,2.8872E2,2.8872E2,9.113E1,1.1249E2,1.009E2,1.5583E2,4.841E1,6.238E1,1E0,1.2534E2,1.0965E2,7.417E1,-3.0495816E-1,7.739E1,5.211E1,6.677E1,8.4E2,5.766E1,1E0,7.853E1,1E0,7.252E1,1.4833E2,1.5968E2,1.6428E2,1.0184E2,1.3995E2,1.38E3,-2.981954E-1,2.1186E2,6.4E1,8.622E1,1.0792E2,1.5320729E-2,1.1526E2,1.0302E2,1.3995E2,6.261218E-2,-2.202058E-1,-3.045404E-1,4.034724E-1,-2.182144E-1,-1.8237586E-1,2.9070896E-1,6.9342947E-1,3.9136392E-1,-3.0375838E-1,-8.446514E-3,4.1046473E-1,-9.629159E-2,2.4025881E-1,-2.9914933E-1,9.785782E-2,-2.703673E-1,6.8355626E-1,1.5354605E-1,3.0312124E-1,-1.986763E-1,7.4893297E-3,-2.9607818E-1,1.6307087E-1,3.9255467E-1,2.0838228E-1,-2.5726795E-1,-1.15057856E-1,3.432998E-1,9.637407E-2,-2.9668415E-1,3.5393156E-2,3.127799E-1,-2.9948434E-1,2.7112985E-1,-2.592061E-1,3.4040707E-1,-1.3456476E-1,-3.0503455E-1,6.3017696E-1,-1.5461251E-1,9.162754E-2,3.1539318E-1,2.3567642E-1,-3.537037E-3,-9.021039E-2,2.352618E-1,1.645883E-1,-3.049968E-1,3.2338923E-1,9.026553E-2,3.151034E-1,-3.9221603E-2,2.555649E-1,-3.6565048E-1,3.1826752E-1,2.334574E-1],"split_indices":[2,0,0,4,2,2,2,2,6,6,4,0,4,1,2,2,0,2,2,2,4,8,8,4,6,2,2,4,6,4,4,4,6,1,2,2,8,0,6,4,8,7,10,1,10,1,6,2,2,2,4,4,7,0,6,0,6,4,0,6,6,4,0,0,0,0,0,0,0,0,0,0,0,0,0,0,0,0,0,0,0,0,0,0,0,0,0,0,0,0,0,0,0,0,0,0,0,0,0,0,0,0,0,0,0,0,0,0,0,0,0,0,0,0,0,0,0,0,0],"split_type":[0,0,0,0,0,0,0,0,0,0,0,0,0,0,0,0,0,0,0,0,0,0,0,0,0,0,0,0,0,0,0,0,0,0,0,0,0,0,0,0,0,0,0,0,0,0,0,0,0,0,0,0,0,0,0,0,0,0,0,0,0,0,0,0,0,0,0,0,0,0,0,0,0,0,0,0,0,0,0,0,0,0,0,0,0,0,0,0,0,0,0,0,0,0,0,0,0,0,0,0,0,0,0,0,0,0,0,0,0,0,0,0,0,0,0,0,0,0,0],"sum_hessian":[1.57229375E4,1.1614614E4,4.1083228E3,1.0867249E4,7.473651E2,1.8893005E3,2.2190225E3,1.5533984E3,9.313851E3,4.575495E2,2.8981564E2,1.5491641E3,3.4013644E2,2.5034866E2,1.9686738E3,1.4786545E3,7.474386E1,2.018193E2,9.112031E3,3.170442E1,4.2584506E2,1.3009904E2,1.5971658E2,7.669776E1,1.4724663E3,1.22092804E2,2.1804364E2,1.0789173E2,1.4245694E2,3.7853937E2,1.5901344E3,1.3556484E3,1.2300617E2,4.600936E1,2.8734499E1,1.8874034E2,1.30789585E1,9.009242E3,1.0278887E2,1.6972633E1,1.4731787E1,1.7097471E1,4.087476E2,1.2214953E2,7.949522E0,2.3028706E1,1.3668788E2,6.3376057E1,1.3321708E1,1.4110544E1,1.4583557E3,1.5633204E1,1.06459595E2,4.2305893E1,1.7573775E2,2.9978933E1,7.7912796E1,1.4130515E2,1.1517968E0,3.2779764E2,5.074172E1,1.588274E3,1.8603239E0,5.8343872E1,1.2973046E3,1.5885502E1,1.07120674E2,4.0381618E0,4.19712E1,1.1307673E1,1.7426826E1,1.8706807E2,1.6722817E0,1.0620904E1,2.458055E0,4.5257373E0,9.826313E1,2.4999247E0,1.4472709E1,6.689034E0,8.042752E0,7.581792E0,9.515679E0,3.4845538E0,4.0526303E2,2.2210524E1,9.9939E1,1.1865625E0,6.7629595E0,9.0148735E0,1.4013831E1,3.8635786E0,1.328243E2,6.478713E0,5.6897343E1,9.7017145E0,3.6199932E0,4.992274E0,9.118271E0,2.3141E1,1.4352147E3,1.4609822E1,1.0233823E0,1.6632271E0,1.0479637E2,2.6143068E1,1.4959468E2,6.312232E0,2.3666702E1,4.2507157E0,7.366208E1,1.4013405E2,1.1710937E0,3.248282E2,2.9694588E0,1.506004E1,3.568168E1,1.5721654E3,1.6108738E1],"tree_param":{"num_deleted":"0","num_feature":"12","num_nodes":"119","size_leaf_vector":"1"}},{"base_weights":[-6.443684E-1,-9.4492275E-1,1.870128E-1,-9.806973E-1,-4.5725024E-1,-6.540051E-1,9.125978E-1,-8.2865834E-1,-1.0065209E0,9.28348E-2,-8.091862E-1,-8.975002E-1,2.985295E-1,4.0890253E-1,9.9207467E-1,-9.696774E-1,6.0993344E-1,-8.644076E-1,-1.0106678E0,-6.754491E-1,9.2094874E-1,-9.094096E-1,1.17215775E-1,5.076467E-1,-9.954057E-1,1.1302809E0,-8.672179E-2,-4.326712E-1,1.0362197E0,8.220741E-1,1.0438111E0,-4.8611537E-1,-9.933316E-1,9.486865E-1,-5.2812314E-1,-9.9001676E-1,1.0420853E0,-3.0355972E-1,-8.964659E-1,1.1856399E0,-7.598662E-1,1.3733876E0,5.678081E-1,4.9603162E-3,-9.727902E-1,9.174319E-1,-6.154513E-1,9.8413867E-1,-1.3236885E-1,-1.4432974E-1,-1.0091826E0,1.7844365E0,1.0105301E0,-2.9459214E-1,8.294985E-2,8.144625E-1,-7.6676124E-1,1.0455973E0,1.913218E-2,9.714804E-1,-8.4479475E-1,3.1341317E-1,7.2699845E-2,-2.725212E-1,7.1779084E-1,-3.0292726E-1,-2.1685259E-1,1.6626678E-1,4.9354395E-1,2.1268414E-1,-3.025697E-1,-3.0232456E-1,-2.3998443E-2,3.7524307E-1,-1.9927536E-1,1.7286752E-1,-2.9551342E-1,-1.6775768E-1,5.258571E-1,-2.6090736E-2,-2.7935144E-1,4.4115394E-1,1.9779022E-1,2.144375E-1,-1.6943157E-1,-2.6036003E-1,3.3688572E-1,-1.1828015E-1,-2.96914E-1,3.3691332E-1,1.1384178E-1,1.6274004E-1,-2.8187907E-1,3.017149E-1,2.7544184E-2,-2.6076686E-1,3.9926195E-1,-3.0458805E-1,2.8835425E-1,-5.8320027E-2,-3.0321187E-1,5.8572805E-1,-2.8859414E-2,7.875237E-2,3.0647045E-1,6.635164E-2,-1.3860928E-1,2.9979485E-1,-2.7815845E-2,-3.048418E-1,1.8127984E-1,3.15164E-1,9.8239556E-2,2.98111E-1,-2.1552306E-1,2.0348309E-1,-4.1287217E-1],"categories":[],"categories_nodes":[],"categories_segments":[],"categories_sizes":[],"default_left":[0,0,0,0,0,0,0,0,0,0,0,0,0,0,0,0,1,0,0,0,0,0,0,0,0,0,0,0,1,0,1,0,0,0,0,0,0,0,0,0,0,1,1,0,0,0,0,1,0,0,0,1,0,0,1,1,0,0,0,1,0,0,0,0,0,0,0,0,0,0,0,0,0,0,0,0,0,0,0,0,0,0,0,0,0,0,0,0,0,0,0,0,0,0,0,0,0,0,0,0,0,0,0,0,0,0,0,0,0,0,0,0,0,0,0,0,0],"id":8,"left_children":[1,3,5,7,9,11,13,15,17,19,21,23,25,27,29,31,33,35,37,39,41,43,45,47,49,51,53,55,57,59,61,63,65,67,69,71,73,-1,75,77,79,81,83,85,87,89,91,93,95,97,99,101,103,-1,105,107,109,111,-1,113,115,-1,-1,-1,-1,-1,-1,-1,-1,-1,-1,-1,-1,-1,-1,-1,-1,-1,-1,-1,-1,-1,-1,-1,-1,-1,-1,-1,-1,-1,-1,-1,-1,-1,-1,-1,-1,-1,-1,-1,-1,-1,-1,-1,-1,-1,-1,-1,-1,-1,-1,-1,-1,-1,-1,-1,-1],"loss_changes":[2.9650498E3,1.5159668E2,1.9236565E3,3.1040527E1,1.1574709E2,3.38935E2,6.7336914E1,2.4086469E2,3.2138672E0,1.4951067E2,3.394725E1,1.6052094E2,9.559349E1,1.2309842E2,1.1990601E1,1.1859436E1,4.1500576E1,4.977545E1,1.46484375E-2,2.006356E1,1.7282196E1,1.9072021E1,2.194528E1,2.3437586E1,1.2608032E1,5.5925674E0,3.1161203E1,4.2257683E1,1.1498108E0,8.688066E1,5.515137E-1,6.57277E1,3.8364868E0,2.1701607E1,1.5595427E1,3.0091095E0,5.4853916E0,0E0,1.0828358E1,6.604648E0,1.3438927E1,2.4186249E0,1.125684E1,2.2756962E1,2.622223E0,1.5462303E0,7.8796806E0,7.53479E-1,3.7274395E1,1.878306E1,1.1320801E0,4.390644E0,4.097824E-1,0E0,1.3128782E1,3.7144032E0,2.7735668E1,1.2535095E-1,0E0,1.2641205E1,2.4375387E1,0E0,0E0,0E0,0E0,0E0,0E0,0E0,0E0,0E0,0E0,0E0,0E0,0E0,0E0,0E0,0E0,0E0,0E0,0E0,0E0,0E0,0E0,0E0,0E0,0E0,0E0,0E0,0E0,0E0,0E0,0E0,0E0,0E0,0E0,0E0,0E0,0E0,0E0,0E0,0E0,0E0,0E0,0E0,0E0,0E0,0E0,0E0,0E0,0E0,0E0,0E0,0E0,0E0,0E0,0E0,0E0],"parents":[2147483647,0,0,1,1,2,2,3,3,4,4,5,5,6,6,7,7,8,8,9,9,10,10,11,11,12,12,13,13,14,14,15,15,16,16,17,17,18,18,19,19,20,20,21,21,22,22,23,23,24,24,25,25,26,26,27,27,28,28,29,29,30,30,31,31,32,32,33,33,34,34,35,35,36,36,38,38,39,39,40,40,41,41,42,42,43,43,44,44,45,45,46,46,47,47,48,48,49,49,50,50,51,51,52,52,54,54,55,55,56,56,57,57,59,59,60,60],"right_children":[2,4,6,8,10,12,14,16,18,20,22,24,26,28,30,32,34,36,38,40,42,44,46,48,50,52,54,56,58,60,62,64,66,68,70,72,74,-1,76,78,80,82,84,86,88,90,92,94,96,98,100,102,104,-1,106,108,110,112,-1,114,116,-1,-1,-1,-1,-1,-1,-1,-1,-1,-1,-1,-1,-1,-1,-1,-1,-1,-1,-1,-1,-1,-1,-1,-1,-1,-1,-1,-1,-1,-1,-1,-1,-1,-1,-1,-1,-1,-1,-1,-1,-1,-1,-1,-1,-1,-1,-1,-1,-1,-1,-1,-1,-1,-1,-1,-1],"split_conditions":[1.3475E2,7.5E1,3E1,7.188E1,7.902E1,2.6336E2,1.4833E2,1.0451E2,6.506E1,1.0035E2,1.2623E2,1.0459E2,1.9361E2,1E0,1.6664E2,4.841E1,7.685E1,1.1597E2,1.3188E2,4.849E1,7.353E1,7.254E1,9.301E1,1.8E1,1.8E1,2.8872E2,2.8872E2,8.815E1,1.1176E2,1.0976E2,1.531E2,8.535E1,9.612E1,6.5E1,7.218E1,1.0999E2,9.511E1,-3.0355972E-1,7.954E1,7.692E1,5.759E1,7.712E1,8.559E1,1.0423E2,7.484E1,9.384E1,8.777E1,1.1661E2,2.0929E2,1.5968E2,8.879E1,1.1619E2,1.38E3,-2.9459214E-1,2.5028E2,9.133E1,8.5E1,1.0792E2,1.913218E-2,1.1499E2,1.0818E2,3.1341317E-1,7.2699845E-2,-2.725212E-1,7.1779084E-1,-3.0292726E-1,-2.1685259E-1,1.6626678E-1,4.9354395E-1,2.1268414E-1,-3.025697E-1,-3.0232456E-1,-2.3998443E-2,3.7524307E-1,-1.9927536E-1,1.7286752E-1,-2.9551342E-1,-1.6775768E-1,5.258571E-1,-2.6090736E-2,-2.7935144E-1,4.4115394E-1,1.9779022E-1,2.144375E-1,-1.6943157E-1,-2.6036003E-1,3.3688572E-1,-1.1828015E-1,-2.96914E-1,3.3691332E-1,1.1384178E-1,1.6274004E-1,-2.8187907E-1,3.017149E-1,2.7544184E-2,-2.6076686E-1,3.9926195E-1,-3.0458805E-1,2.8835425E-1,-5.8320027E-2,-3.0321187E-1,5.8572805E-1,-2.8859414E-2,7.875237E-2,3.0647045E-1,6.635164E-2,-1.3860928E-1,2.9979485E-1,-2.7815845E-2,-3.048418E-1,1.8127984E-1,3.15164E-1,9.8239556E-2,2.98111E-1,-2.1552306E-1,2.0348309E-1,-4.1287217E-1],"split_indices":[2,0,0,4,4,2,2,2,6,2,2,4,4,1,2,4,6,2,2,6,6,8,6,0,0,2,2,6,6,4,8,2,2,0,8,2,4,0,4,2,4,8,8,2,10,8,4,6,2,2,8,8,7,0,10,8,0,4,0,10,6,0,0,0,0,0,0,0,0,0,0,0,0,0,0,0,0,0,0,0,0,0,0,0,0,0,0,0,0,0,0,0,0,0,0,0,0,0,0,0,0,0,0,0,0,0,0,0,0,0,0,0,0,0,0,0,0],"split_type":[0,0,0,0,0,0,0,0,0,0,0,0,0,0,0,0,0,0,0,0,0,0,0,0,0,0,0,0,0,0,0,0,0,0,0,0,0,0,0,0,0,0,0,0,0,0,0,0,0,0,0,0,0,0,0,0,0,0,0,0,0,0,0,0,0,0,0,0,0,0,0,0,0,0,0,0,0,0,0,0,0,0,0,0,0,0,0,0,0,0,0,0,0,0,0,0,0,0,0,0,0,0,0,0,0,0,0,0,0,0,0,0,0,0,0,0,0],"sum_hessian":[1.1864414E4,8.714045E3,3.1503687E3,8.1175493E3,5.964955E2,1.4591648E3,1.6912039E3,1.1833777E3,6.934172E3,2.3301822E2,3.6347726E2,1.162145E3,2.970198E2,2.31321E2,1.4598828E3,1.078029E3,1.0534865E2,2.0254596E2,6.731626E3,1.2097129E2,1.1204693E2,3.280097E2,3.546757E1,7.5426895E1,1.0867181E3,9.341165E1,2.0360815E2,9.892245E1,1.3239854E2,3.445656E2,1.1153173E3,5.1279434E1,1.0267496E3,8.131183E1,2.4036818E1,1.904771E2,1.2068861E1,6.6539688E3,7.7657E1,4.683008E0,1.16288284E2,4.7851368E1,6.4195564E1,2.132228E1,3.066874E2,1.6831783E1,1.863579E1,4.292874E1,3.2498154E1,1.7494057E1,1.0692241E3,1.2303082E1,8.1108574E1,3.1677603E1,1.7193056E2,2.0597107E1,7.832534E1,1.3105948E2,1.3390713E0,3.1660458E2,2.796101E1,1.1137639E3,1.5534033E0,4.5316353E1,5.9630814E0,9.653916E2,6.1357964E1,5.3056976E1,2.8254854E1,6.590811E0,1.7446007E1,1.8673125E2,3.7458422E0,1.0991325E1,1.0775353E0,4.093539E0,7.356345E1,1.1523572E0,3.530651E0,2.3903124E1,9.238516E1,4.1189716E1,6.661654E0,5.7147923E1,7.0476394E0,1.2099676E1,9.222606E0,9.406941E0,2.9728046E2,1.1390602E1,5.4411807E0,3.9285676E0,1.4707222E1,4.1791103E1,1.1376401E0,2.1883902E1,1.0614253E1,9.830678E0,7.6633797E0,2.2355964E0,1.0669885E3,1.1259167E1,1.0439154E0,1.5398431E0,7.9568726E1,1.3762038E2,3.431018E1,1.7026175E1,3.5709326E0,6.6490204E1,1.1835142E1,1.2970268E2,1.3567966E0,3.1290176E2,3.702819E0,7.1612577E0,2.0799751E1],"tree_param":{"num_deleted":"0","num_feature":"12","num_nodes":"117","size_leaf_vector":"1"}},{"base_weights":[-6.316882E-1,-9.316701E-1,1.7891674E-1,-9.72256E-1,-4.2014146E-1,-6.223819E-1,8.8639367E-1,-7.4350417E-1,-9.941599E-1,-7.2679657E-1,1.5813091E-1,-8.87794E-1,2.4294819E-1,4.9249625E-1,9.9651384E-1,-9.6849144E-1,2.2859088E-1,-1.0060544E0,-8.348651E-1,-1.6128291E-1,-9.52827E-1,-6.485792E-1,9.514177E-1,4.7381803E-1,-9.899047E-1,1.0837958E0,-7.293413E-2,9.1077965E-1,-5.819012E-1,1.0080996E0,5.7128406E-1,-5.840012E-1,-3.013359E-1,7.0888805E-1,-5.165791E-1,-5.526467E-1,-1.0068699E0,1.1561588E0,-9.6666443E-1,-8.014955E-1,2.84969E-1,1.1770983E-1,-9.8246974E-1,1.5364829E-1,-9.121566E-1,1.1017944E0,-8.753925E-2,9.7801214E-1,-6.168575E-2,-1.3717662E-1,-1.0042113E0,1.1274333E0,1.21799454E-1,-2.9066023E-1,5.657076E-2,4.8669618E-1,3.1140554E-1,6.784536E-1,-9.641653E-1,8.81553E-1,3.0973914E-1,-4.4933924E-1,3.0055204E-1,-2.6962724E-1,4.8672453E-1,-1.6992673E-1,2.820256E-1,-2.729471E-1,2.4775262E-1,-2.7240184E-1,3.1376812E-1,-2.6129547E-1,-3.0253702E-1,4.2369723E-1,-1.552119E-1,1.5519072E-1,-3.0203396E-1,-4.7198728E-2,-2.861487E-1,1.9050387E-1,-1.6982785E-1,-2.3573889E-1,3.6026105E-1,-1.5501226E-1,-2.9786572E-1,-1.6703221E-1,1.6781603E-1,9.102589E-2,-2.9219183E-1,3.4165317E-1,-2.9476194E-2,2.481779E-1,-1.9056113E-1,3.0914015E-1,-5.8775432E-2,-1.9416164E-1,3.1581023E-1,-2.9322082E-1,2.7426222E-1,-2.6240708E-2,-3.0192587E-1,5.0657386E-1,3.021502E-1,-1.8465108E-1,1.6481188E-1,3.0313912E-1,-5.4738238E-3,2.4106641E-1,-7.132704E-2,-1.2814978E-1,2.7876347E-1,-3.487999E-1,1.0268036E-1,2.9318672E-1,-2.3504211E-1],"categories":[],"categories_nodes":[],"categories_segments":[],"categories_sizes":[],"default_left":[0,0,0,0,0,0,0,0,0,0,0,0,0,0,1,0,1,0,0,0,0,0,1,0,0,1,0,0,0,0,0,0,0,0,0,0,0,0,0,0,1,0,0,0,0,1,0,1,0,0,0,0,0,0,0,0,0,0,0,0,0,0,0,0,0,0,0,0,0,0,0,0,0,0,0,0,0,0,0,0,0,0,0,0,0,0,0,0,0,0,0,0,0,0,0,0,0,0,0,0,0,0,0,0,0,0,0,0,0,0,0,0,0,0,0],"id":9,"left_children":[1,3,5,7,9,11,13,15,17,19,21,23,25,27,29,31,33,35,37,39,41,43,45,47,49,51,53,55,57,59,61,63,-1,65,67,69,71,73,75,77,79,81,83,85,87,89,91,93,95,97,99,101,103,-1,105,107,-1,109,111,113,-1,-1,-1,-1,-1,-1,-1,-1,-1,-1,-1,-1,-1,-1,-1,-1,-1,-1,-1,-1,-1,-1,-1,-1,-1,-1,-1,-1,-1,-1,-1,-1,-1,-1,-1,-1,-1,-1,-1,-1,-1,-1,-1,-1,-1,-1,-1,-1,-1,-1,-1,-1,-1,-1,-1],"loss_changes":[2.1814744E3,1.3552441E2,1.3746321E3,2.9652344E1,8.577812E1,2.613837E2,5.5364502E1,1.1701367E2,9.642578E0,4.0219437E1,1.0827038E2,1.2149188E2,7.118285E1,1.2785459E2,4.3771973E0,5.4119873E0,3.6576626E1,1.3457031E0,1.0353366E2,2.6340164E1,7.270111E0,1.7901737E1,1.3411003E1,1.6638084E1,9.744568E0,2.9341812E0,2.2742142E1,1.051973E1,3.919858E1,2.1033936E0,2.7311842E1,2.8886822E1,0E0,1.8796072E1,2.1989574E1,7.454857E0,2.2802734E-1,1.1313915E1,2.2344177E1,3.5594196E0,1.6623669E1,7.7623644E0,5.5178833E-1,6.5459723E0,5.0573006E0,3.4251328E0,6.3880115E0,2.1529198E0,2.0723331E1,1.3724558E1,1.5244751E0,3.0147247E0,1.6924833E0,0E0,1.2278198E1,1.1447385E1,0E0,5.7213564E0,1.6423893E1,2.7010132E1,0E0,0E0,0E0,0E0,0E0,0E0,0E0,0E0,0E0,0E0,0E0,0E0,0E0,0E0,0E0,0E0,0E0,0E0,0E0,0E0,0E0,0E0,0E0,0E0,0E0,0E0,0E0,0E0,0E0,0E0,0E0,0E0,0E0,0E0,0E0,0E0,0E0,0E0,0E0,0E0,0E0,0E0,0E0,0E0,0E0,0E0,0E0,0E0,0E0,0E0,0E0,0E0,0E0,0E0,0E0],"parents":[2147483647,0,0,1,1,2,2,3,3,4,4,5,5,6,6,7,7,8,8,9,9,10,10,11,11,12,12,13,13,14,14,15,15,16,16,17,17,18,18,19,19,20,20,21,21,22,22,23,23,24,24,25,25,26,26,27,27,28,28,29,29,30,30,31,31,33,33,34,34,35,35,36,36,37,37,38,38,39,39,40,40,41,41,42,42,43,43,44,44,45,45,46,46,47,47,48,48,49,49,50,50,51,51,52,52,54,54,55,55,57,57,58,58,59,59],"right_children":[2,4,6,8,10,12,14,16,18,20,22,24,26,28,30,32,34,36,38,40,42,44,46,48,50,52,54,56,58,60,62,64,-1,66,68,70,72,74,76,78,80,82,84,86,88,90,92,94,96,98,100,102,104,-1,106,108,-1,110,112,114,-1,-1,-1,-1,-1,-1,-1,-1,-1,-1,-1,-1,-1,-1,-1,-1,-1,-1,-1,-1,-1,-1,-1,-1,-1,-1,-1,-1,-1,-1,-1,-1,-1,-1,-1,-1,-1,-1,-1,-1,-1,-1,-1,-1,-1,-1,-1,-1,-1,-1,-1,-1,-1,-1,-1],"split_conditions":[1.3475E2,7.5E1,3E1,6.622E1,1.1103E2,2.6336E2,1.5502E2,9.612E1,1.215E2,7.075E1,1E0,1.0459E2,1.9361E2,9.468E1,1.2914E2,4.841E1,6.722E1,4.849E1,7.975E1,8.394E1,6.248E1,8.451E1,8.837E1,1.0278E2,1.8E1,2.1186E2,2.8872E2,1E0,1.0161E2,1.6664E2,1.7851E2,8.347E1,-3.013359E-1,3E1,1.185E2,9.054E1,5.991E1,8.988E1,7.391E1,5.211E1,7.353E1,8.673E1,6.822E1,1.1905E2,7.54E1,9.094E1,8.537E1,1.1218E2,1.9977E2,1.5968E2,8.88E1,2.8872E2,3.408E4,-2.9066023E-1,2.0721E2,8.649E1,3.1140554E-1,6.5E1,8.5E1,1.1445E2,3.0973914E-1,-4.4933924E-1,3.0055204E-1,-2.6962724E-1,4.8672453E-1,-1.6992673E-1,2.820256E-1,-2.729471E-1,2.4775262E-1,-2.7240184E-1,3.1376812E-1,-2.6129547E-1,-3.0253702E-1,4.2369723E-1,-1.552119E-1,1.5519072E-1,-3.0203396E-1,-4.7198728E-2,-2.861487E-1,1.9050387E-1,-1.6982785E-1,-2.3573889E-1,3.6026105E-1,-1.5501226E-1,-2.9786572E-1,-1.6703221E-1,1.6781603E-1,9.102589E-2,-2.9219183E-1,3.4165317E-1,-2.9476194E-2,2.481779E-1,-1.9056113E-1,3.0914015E-1,-5.8775432E-2,-1.9416164E-1,3.1581023E-1,-2.9322082E-1,2.7426222E-1,-2.6240708E-2,-3.0192587E-1,5.0657386E-1,3.021502E-1,-1.8465108E-1,1.6481188E-1,3.0313912E-1,-5.4738238E-3,2.4106641E-1,-7.132704E-2,-1.2814978E-1,2.7876347E-1,-3.487999E-1,1.0268036E-1,2.9318672E-1,-2.3504211E-1],"split_indices":[2,0,0,4,2,2,2,2,2,4,1,4,4,4,8,4,6,6,6,2,8,4,6,6,0,6,2,1,8,2,2,2,0,0,2,2,8,4,4,4,6,2,8,2,6,10,8,8,2,2,6,2,7,0,8,4,0,0,0,4,0,0,0,0,0,0,0,0,0,0,0,0,0,0,0,0,0,0,0,0,0,0,0,0,0,0,0,0,0,0,0,0,0,0,0,0,0,0,0,0,0,0,0,0,0,0,0,0,0,0,0,0,0,0,0],"split_type":[0,0,0,0,0,0,0,0,0,0,0,0,0,0,0,0,0,0,0,0,0,0,0,0,0,0,0,0,0,0,0,0,0,0,0,0,0,0,0,0,0,0,0,0,0,0,0,0,0,0,0,0,0,0,0,0,0,0,0,0,0,0,0,0,0,0,0,0,0,0,0,0,0,0,0,0,0,0,0,0,0,0,0,0,0,0,0,0,0,0,0,0,0,0,0,0,0,0,0,0,0,0,0,0,0,0,0,0,0,0,0,0,0,0,0],"sum_hessian":[8.969415E3,6.546567E3,2.4228484E3,6.064495E3,4.8207172E2,1.1361494E3,1.286699E3,5.330078E2,5.5314873E3,3.1485092E2,1.672208E2,8.6944824E2,2.6670114E2,2.823197E2,1.0043793E3,4.3283395E2,1.0017384E2,5.1422056E3,3.8928177E2,9.039698E1,2.2445393E2,8.299938E1,8.422141E1,6.0399586E1,8.0904865E2,7.2167465E1,1.9453368E2,2.0331686E2,7.900284E1,9.764057E2,2.79736E1,3.8495068E1,3.9433887E2,6.094233E1,3.9231514E1,1.0451643E1,5.131754E3,2.3686718E1,3.6559503E2,3.6802475E1,5.3594505E1,5.967537E0,2.1848639E2,2.062919E1,6.2370193E1,7.351981E1,1.0701596E1,3.0683622E1,2.9715963E1,1.3524572E1,7.955241E2,6.887139E1,3.296074E0,2.3749556E1,1.7078412E2,4.8036736E1,1.5528012E2,1.820493E1,6.0797913E1,1.6364192E2,8.127638E2,4.391421E0,2.358218E1,3.4207813E1,4.2872534E0,9.130039E0,5.181229E1,3.059219E1,8.639325E0,8.904197E0,1.5474466E0,6.558023E1,5.066174E3,2.0677692E1,3.0090253E0,9.30974E0,3.562853E2,7.4273853E0,2.937509E1,3.8155083E1,1.5439424E1,3.4032705E0,2.5642662E0,5.8861647E0,2.1260023E2,7.3636527E0,1.3265538E1,2.829108E0,5.9541084E1,7.136746E1,2.152352E0,3.8163614E0,6.885235E0,2.9488201E1,1.1954204E0,1.9755354E1,9.9606085E0,7.5562615E0,5.968311E0,2.0091963E0,7.935149E2,9.853912E0,5.901748E1,1.0485091E0,2.2475648E0,1.1511393E1,1.5927274E2,3.3343777E1,1.4692961E1,3.235546E0,1.4969383E1,5.2874187E1,7.9237227E0,1.5513498E2,8.506939E0],"tree_param":{"num_deleted":"0","num_feature":"12","num_nodes":"115","size_leaf_vector":"1"}},{"base_weights":[-6.17782E-1,-9.216886E-1,1.6134751E-1,-9.845436E-1,-5.6193316E-1,-5.896916E-1,8.4560263E-1,-6.226282E-1,-9.946394E-1,1.1830343E-1,-8.5420185E-1,-8.7628245E-1,1.9871153E-1,4.278823E-1,9.7835064E-1,-9.5039755E-1,2.817708E-1,-6.8742526E-1,-1.0005838E0,-7.068644E-1,8.3079714E-1,1.3645288E-1,-9.1573626E-1,3.8347208E-1,-9.8508793E-1,1.0552762E0,-5.0579272E-2,-3.2246667E-1,1.011903E0,7.957399E-1,1.0147331E0,-9.8257595E-1,-4.450377E-1,8.011682E-1,-8.106327E-1,-9.47208E-1,1.0184255E0,-4.6930632E-1,-1.0015476E0,8.296582E-2,-9.1670835E-1,1.0390183E0,-4.076827E-2,-8.116799E-1,9.1684514E-1,-9.857562E-1,-4.5847428E-1,8.94239E-1,-2.072615E-1,-2.0775369E-1,-9.997512E-1,1.0913112E0,1.7057057E-1,-2.865352E-1,5.0875857E-2,5.183965E-1,-8.27478E-1,3.057271E-1,5.9002484E-3,9.9453855E-1,-5.156289E-1,3.054583E-1,3.8589147E-1,-4.4470154E-2,-2.984971E-1,-2.5239193E-1,2.0358147E-1,3.2282895E-1,-7.579191E-2,-3.1179237E-1,6.020536E-2,3.3726852E-2,-2.967754E-1,3.6925226E-1,-7.540507E-2,-2.641717E-1,3.8810897E-1,-3.0216026E-1,-2.7294895E-1,-2.3567341E-1,2.727716E-1,1.5557894E-1,-2.8751284E-1,7.7127315E-2,3.4657186E-1,3.259611E-1,-1.7974766E-1,1.12299256E-1,-2.8190964E-1,3.173926E-1,-1.528555E-1,-1.7215928E-1,-3.014083E-1,-2.8955984E-1,2.4090547E-3,8.243878E-2,2.940981E-1,-2.3354752E-1,3.4729832E-1,-2.8370056E-1,2.6014504E-1,-6.976014E-2,-3.012781E-1,4.4374195E-1,2.9527953E-1,1.2843584E-1,-5.3834092E-2,-8.005837E-3,2.3030509E-1,-6.571811E-2,2.2119662E-1,-3.3722565E-1,1.0003814E-1,3.0343533E-1,3.796807E-2,-4.6522456E-1,2.4162982E-1,-1.6206475E-1,2.3694879E-1],"categories":[],"categories_nodes":[],"categories_segments":[],"categories_sizes":[],"default_left":[0,0,0,0,0,0,0,0,0,0,0,0,0,0,0,0,1,0,0,0,1,0,0,0,0,1,0,0,1,0,1,0,0,1,0,0,0,0,0,0,0,0,0,0,0,0,0,0,0,0,0,0,0,0,0,0,0,0,0,1,0,0,0,0,0,0,0,0,0,0,0,0,0,0,0,0,0,0,0,0,0,0,0,0,0,0,0,0,0,0,0,0,0,0,0,0,0,0,0,0,0,0,0,0,0,0,0,0,0,0,0,0,0,0,0,0,0,0,0],"id":10,"left_children":[1,3,5,7,9,11,13,15,17,19,21,23,25,27,29,31,33,35,37,39,41,43,45,47,49,51,53,55,57,59,61,63,65,67,69,71,73,75,77,79,81,83,85,87,89,91,93,95,97,99,101,103,105,-1,107,109,111,-1,-1,113,115,-1,117,-1,-1,-1,-1,-1,-1,-1,-1,-1,-1,-1,-1,-1,-1,-1,-1,-1,-1,-1,-1,-1,-1,-1,-1,-1,-1,-1,-1,-1,-1,-1,-1,-1,-1,-1,-1,-1,-1,-1,-1,-1,-1,-1,-1,-1,-1,-1,-1,-1,-1,-1,-1,-1,-1,-1,-1],"loss_changes":[1.6100217E3,1.1005078E2,9.813732E2,1.4589355E1,1.4519594E2,2.0590604E2,5.4986145E1,3.4546314E1,6.70459E0,1.300543E2,3.1250824E1,9.193451E1,5.206132E1,1.06694565E2,4.2247314E0,9.466553E-1,1.8540283E1,3.6430473E1,1.5617676E0,1.707727E1,2.1571579E1,2.3482834E1,1.4944305E1,1.642593E1,6.803833E0,1.5657082E0,1.7448912E1,4.586371E1,9.5506287E-1,3.4525803E1,9.73938E-1,6.7266846E-1,3.6532521E0,6.609133E0,2.6733875E0,3.228508E0,3.2921972E0,7.7147903E0,1.1374512E0,1.6825024E1,5.3489304E0,8.4084015E0,1.5656968E1,2.5388956E0,4.0269127E0,2.6695251E0,1.5544719E1,1.2799988E0,2.0994287E1,1.0854807E1,1.854187E0,7.2846603E-1,3.7754157E-1,0E0,9.551774E0,6.7425165E0,2.3525795E1,0E0,0E0,1.540123E0,2.5635551E1,0E0,2.3150125E0,0E0,0E0,0E0,0E0,0E0,0E0,0E0,0E0,0E0,0E0,0E0,0E0,0E0,0E0,0E0,0E0,0E0,0E0,0E0,0E0,0E0,0E0,0E0,0E0,0E0,0E0,0E0,0E0,0E0,0E0,0E0,0E0,0E0,0E0,0E0,0E0,0E0,0E0,0E0,0E0,0E0,0E0,0E0,0E0,0E0,0E0,0E0,0E0,0E0,0E0,0E0,0E0,0E0,0E0,0E0,0E0],"parents":[2147483647,0,0,1,1,2,2,3,3,4,4,5,5,6,6,7,7,8,8,9,9,10,10,11,11,12,12,13,13,14,14,15,15,16,16,17,17,18,18,19,19,20,20,21,21,22,22,23,23,24,24,25,25,26,26,27,27,28,28,29,29,30,30,31,31,32,32,33,33,34,34,35,35,36,36,37,37,38,38,39,39,40,40,41,41,42,42,43,43,44,44,45,45,46,46,47,47,48,48,49,49,50,50,51,51,52,52,54,54,55,55,56,56,59,59,60,60,62,62],"right_children":[2,4,6,8,10,12,14,16,18,20,22,24,26,28,30,32,34,36,38,40,42,44,46,48,50,52,54,56,58,60,62,64,66,68,70,72,74,76,78,80,82,84,86,88,90,92,94,96,98,100,102,104,106,-1,108,110,112,-1,-1,114,116,-1,118,-1,-1,-1,-1,-1,-1,-1,-1,-1,-1,-1,-1,-1,-1,-1,-1,-1,-1,-1,-1,-1,-1,-1,-1,-1,-1,-1,-1,-1,-1,-1,-1,-1,-1,-1,-1,-1,-1,-1,-1,-1,-1,-1,-1,-1,-1,-1,-1,-1,-1,-1,-1,-1,-1,-1,-1],"split_conditions":[1.3325E2,6.5E1,3E1,5.617E1,7.515E1,2.6336E2,1.5502E2,8.832E1,5.752E1,9.41E1,6.722E1,1.0459E2,1.8957E2,1E0,1.6664E2,8.347E1,6.169E1,1.0899E2,4.854E1,5.617E1,8.025E1,9.798E1,8.5E1,1.8E1,1.8E1,2.1186E2,2.8872E2,9.092E1,1.068E2,1.0538E2,1.4064E2,1E0,8.5344E5,6.672E1,1.1067E2,4.854E1,8.517E1,1.0212E2,1.215E2,7.807E1,5.22E1,1E0,7.254E1,5.991E1,9.662E1,7.254E1,1.1067E2,1.4616E2,2.0929E2,1.5968E2,9.908E1,2.8872E2,5.45052E6,-2.865352E-1,1E0,6.4E1,8.4E1,3.057271E-1,5.9002484E-3,1.088E2,7.4E1,3.054583E-1,2.0929E2,-4.4470154E-2,-2.984971E-1,-2.5239193E-1,2.0358147E-1,3.2282895E-1,-7.579191E-2,-3.1179237E-1,6.020536E-2,3.3726852E-2,-2.967754E-1,3.6925226E-1,-7.540507E-2,-2.641717E-1,3.8810897E-1,-3.0216026E-1,-2.7294895E-1,-2.3567341E-1,2.727716E-1,1.5557894E-1,-2.8751284E-1,7.7127315E-2,3.4657186E-1,3.259611E-1,-1.7974766E-1,1.12299256E-1,-2.8190964E-1,3.173926E-1,-1.528555E-1,-1.7215928E-1,-3.014083E-1,-2.8955984E-1,2.4090547E-3,8.243878E-2,2.940981E-1,-2.3354752E-1,3.4729832E-1,-2.8370056E-1,2.6014504E-1,-6.976014E-2,-3.012781E-1,4.4374195E-1,2.9527953E-1,1.2843584E-1,-5.3834092E-2,-8.005837E-3,2.3030509E-1,-6.571811E-2,2.2119662E-1,-3.3722565E-1,1.0003814E-1,3.0343533E-1,3.796807E-2,-4.6522456E-1,2.4162982E-1,-1.6206475E-1,2.3694879E-1],"split_indices":[2,0,0,4,4,2,2,2,6,2,6,4,4,1,2,2,8,2,8,4,6,2,0,0,0,6,2,4,8,4,10,1,5,6,2,8,4,2,2,2,8,1,8,8,4,8,2,2,2,2,8,2,11,0,1,0,0,0,0,6,0,0,2,0,0,0,0,0,0,0,0,0,0,0,0,0,0,0,0,0,0,0,0,0,0,0,0,0,0,0,0,0,0,0,0,0,0,0,0,0,0,0,0,0,0,0,0,0,0,0,0,0,0,0,0,0,0,0,0],"split_type":[0,0,0,0,0,0,0,0,0,0,0,0,0,0,0,0,0,0,0,0,0,0,0,0,0,0,0,0,0,0,0,0,0,0,0,0,0,0,0,0,0,0,0,0,0,0,0,0,0,0,0,0,0,0,0,0,0,0,0,0,0,0,0,0,0,0,0,0,0,0,0,0,0,0,0,0,0,0,0,0,0,0,0,0,0,0,0,0,0,0,0,0,0,0,0,0,0,0,0,0,0,0,0,0,0,0,0,0,0,0,0,0,0,0,0,0,0,0,0],"sum_hessian":[6.7979517E3,4.890273E3,1.907679E3,4.161463E3,7.2881006E2,9.095234E2,9.981556E2,1.1463615E2,4.0468267E3,2.1920943E2,5.0960062E2,6.6696484E2,2.4255853E2,2.4172833E2,7.5642725E2,8.410443E1,3.0531717E1,7.9031075E1,3.9677954E3,1.0157694E2,1.1763248E2,2.9731417E1,4.798692E2,5.2825413E1,6.1413947E2,5.3950657E1,1.8860788E2,1.05994545E2,1.3573378E2,1.2946878E2,6.2695844E2,7.8181946E1,5.922488E0,2.0873663E1,9.658054E0,6.89721E1,1.0058979E1,8.069001E0,3.9597266E3,2.1449177E1,8.012777E1,9.4793686E1,2.283879E1,1.3405001E1,1.6326416E1,4.151431E2,6.472612E1,2.8054678E1,2.4770735E1,1.1651195E1,6.024882E2,5.161479E1,2.3358638E0,1.8172663E1,1.7043521E2,3.97623E1,6.623225E1,1.347308E2,1.0029862E0,1.1263529E2,1.6833492E1,6.2291064E2,4.047811E0,1.3359561E0,7.6845985E1,4.564145E0,1.3583428E0,1.653793E1,4.335734E0,7.854376E0,1.8036782E0,2.568309E0,6.6403786E1,8.643679E0,1.4153008E0,6.9485908E0,1.1204112E0,3.72043E3,2.3929648E2,1.0481113E1,1.0968062E1,1.937623E0,7.819015E1,1.2682042E1,8.211164E1,7.2520905E0,1.55867E1,1.11853E0,1.228647E1,1.50914755E1,1.23494E0,1.9624382E1,3.955187E2,3.0513176E1,3.4212944E1,3.9347026E0,2.4119974E1,1.776542E1,7.005316E0,6.9798207E0,4.671374E0,3.8274443E0,5.986608E2,8.392171E0,4.3222622E1,1.2171367E0,1.1187271E0,1.5466275E2,1.5772468E1,9.10185E0,3.066045E1,5.277941E1,1.3452836E1,1.10320404E2,2.3148813E0,9.340705E0,7.492787E0,1.1268684E0,2.9209428E0],"tree_param":{"num_deleted":"0","num_feature":"12","num_nodes":"119","size_leaf_vector":"1"}},{"base_weights":[-6.007538E-1,-9.0866333E-1,1.4582594E-1,-9.76702E-1,-5.4052234E-1,-5.524077E-1,8.0634E-1,-5.858328E-1,-9.884579E-1,7.898725E-2,-8.3582723E-1,-8.6544204E-1,1.5914084E-1,3.7645435E-1,9.63104E-1,-9.301887E-1,2.0142685E-1,-7.3631173E-1,-9.986121E-1,-4.8623335E-1,8.642859E-1,-8.0082744E-2,-9.269794E-1,4.3589532E-1,-9.710992E-1,9.6945107E-1,-5.2844547E-2,-3.1572956E-1,9.933081E-1,7.8292054E-1,1.0081631E0,-9.7222435E-1,-3.7915623E-1,5.2596366E-1,-9.539191E-1,-9.6441466E-1,8.7071025E-1,-3.5954213E-1,-9.9962354E-1,6.63452E-1,-6.791355E-1,9.625583E-1,-7.674417E-1,-6.5320516E-1,1.0506777E0,-9.561311E-1,-1.2553915E-1,-4.20872E-1,7.383813E-1,-1.1482135E-1,-9.9270314E-1,3.2963085E-1,6.362182E-1,-7.408248E-1,1.6337857E-2,6.0971093E-1,-7.2203374E-1,1.0074409E0,3.9051555E-2,9.8281485E-1,-4.6315905E-1,3.0348402E-1,4.1514343E-1,-3.7934758E-2,-2.9658625E-1,-2.3928562E-1,1.4703819E-1,-8.518005E-2,2.361262E-1,-9.2033386E-2,-3.0801862E-1,-4.6183042E-2,-2.9765525E-1,3.246847E-1,-1.17139295E-1,-2.4263054E-1,2.88801E-1,-3.010409E-1,-2.562424E-1,-2.4877931E-1,3.7538978E-1,1.9826806E-1,-2.3233916E-1,1.7692833E-1,3.7203103E-1,-2.8756222E-1,-1.8227354E-2,1.0866096E-1,-2.5257334E-1,9.532493E-2,3.6512476E-1,-9.54611E-2,-2.9481262E-1,-1.7125599E-1,2.5176534E-1,1.3233678E-1,-2.937186E-1,2.518769E-1,-2.038383E-1,-2.6357913E-1,4.0638825E-1,-1.3929996E-1,-3.005008E-1,-8.2177855E-2,2.2266985E-1,3.1555453E-1,-2.8302965E-1,3.8198434E-2,-1.2302835E-1,2.4038303E-1,-8.878632E-2,-2.991728E-1,9.322374E-2,3.037311E-1,7.7967145E-2,3.004006E-1,6.5124296E-2,2.5167954E-1,-4.6032292E-1,-8.9120746E-2,2.2134902E-1],"categories":[],"categories_nodes":[],"categories_segments":[],"categories_sizes":[],"default_left":[0,0,0,0,0,0,0,0,0,0,0,0,0,0,0,0,1,0,0,0,1,0,0,0,0,0,0,0,0,0,1,0,0,0,0,0,0,0,0,0,0,0,0,0,0,0,0,0,1,0,0,0,0,0,1,1,0,1,0,1,0,0,0,0,0,0,0,0,0,0,0,0,0,0,0,0,0,0,0,0,0,0,0,0,0,0,0,0,0,0,0,0,0,0,0,0,0,0,0,0,0,0,0,0,0,0,0,0,0,0,0,0,0,0,0,0,0,0,0,0,0],"id":11,"left_children":[1,3,5,7,9,11,13,15,17,19,21,23,25,27,29,31,33,35,37,39,41,43,45,47,49,51,53,55,57,59,61,63,65,67,69,71,73,75,77,79,81,83,85,87,89,91,93,95,97,99,101,-1,103,105,107,109,111,113,-1,115,117,-1,119,-1,-1,-1,-1,-1,-1,-1,-1,-1,-1,-1,-1,-1,-1,-1,-1,-1,-1,-1,-1,-1,-1,-1,-1,-1,-1,-1,-1,-1,-1,-1,-1,-1,-1,-1,-1,-1,-1,-1,-1,-1,-1,-1,-1,-1,-1,-1,-1,-1,-1,-1,-1,-1,-1,-1,-1,-1,-1],"loss_changes":[1.1911891E3,9.135913E1,6.985882E2,1.3642334E1,1.0516261E2,1.6417827E2,5.2087982E1,2.5351507E1,6.9541016E0,8.313726E1,2.6731201E1,7.076822E1,3.884698E1,8.981632E1,3.8358765E0,1.1312904E0,1.1401044E1,4.4851562E1,1.5046387E0,2.4624622E1,1.3303024E1,2.8537298E1,7.9903564E0,1.0446414E1,8.645447E0,1.321373E0,8.577901E0,3.78673E1,1.2239075E0,2.9956703E1,5.054016E-1,7.004738E-1,2.6568155E0,5.15917E0,2.1324158E-3,2.2242737E0,4.5449505E0,4.4131293E0,7.5390625E-1,1.5224149E1,1.2498528E1,6.961113E0,6.1797476E-1,5.887969E0,1.4230499E0,5.3638306E0,6.208032E0,5.648531E0,4.7703114E0,1.5537362E1,1.7222595E0,0E0,1.6972923E0,6.972722E0,7.8381157E0,5.5998898E0,2.0100021E1,1.4450836E-1,0E0,1.2346573E0,2.5073984E1,0E0,1.2101861E0,0E0,0E0,0E0,0E0,0E0,0E0,0E0,0E0,0E0,0E0,0E0,0E0,0E0,0E0,0E0,0E0,0E0,0E0,0E0,0E0,0E0,0E0,0E0,0E0,0E0,0E0,0E0,0E0,0E0,0E0,0E0,0E0,0E0,0E0,0E0,0E0,0E0,0E0,0E0,0E0,0E0,0E0,0E0,0E0,0E0,0E0,0E0,0E0,0E0,0E0,0E0,0E0,0E0,0E0,0E0,0E0,0E0,0E0],"parents":[2147483647,0,0,1,1,2,2,3,3,4,4,5,5,6,6,7,7,8,8,9,9,10,10,11,11,12,12,13,13,14,14,15,15,16,16,17,17,18,18,19,19,20,20,21,21,22,22,23,23,24,24,25,25,26,26,27,27,28,28,29,29,30,30,31,31,32,32,33,33,34,34,35,35,36,36,37,37,38,38,39,39,40,40,41,41,42,42,43,43,44,44,45,45,46,46,47,47,48,48,49,49,50,50,52,52,53,53,54,54,55,55,56,56,57,57,59,59,60,60,62,62],"right_children":[2,4,6,8,10,12,14,16,18,20,22,24,26,28,30,32,34,36,38,40,42,44,46,48,50,52,54,56,58,60,62,64,66,68,70,72,74,76,78,80,82,84,86,88,90,92,94,96,98,100,102,-1,104,106,108,110,112,114,-1,116,118,-1,120,-1,-1,-1,-1,-1,-1,-1,-1,-1,-1,-1,-1,-1,-1,-1,-1,-1,-1,-1,-1,-1,-1,-1,-1,-1,-1,-1,-1,-1,-1,-1,-1,-1,-1,-1,-1,-1,-1,-1,-1,-1,-1,-1,-1,-1,-1,-1,-1,-1,-1,-1,-1,-1,-1,-1,-1,-1,-1],"split_conditions":[1.3188E2,6.5E1,3E1,5.617E1,7.515E1,2.6336E2,1.5502E2,8.832E1,6.238E1,1.0316E2,7.286E1,1.0066E2,2.0211E2,1E0,1.6886E2,8.347E1,7.034E1,1.0899E2,4.854E1,5.752E1,8.758E1,1.1215E2,1.2825E2,1.4833E2,1.0617E2,1.7492E2,2.8872E2,9.387E1,1.0705E2,1.0538E2,1.4064E2,1E0,8.5344E5,3.3E1,6.99E1,4.854E1,8.517E1,8.719E1,1.2623E2,7.539E1,4.841E1,1.1552E2,1.185E2,5.752E1,1.1645E2,7.545E1,1E0,1.8E1,1.1983E2,1.9131E2,1.8E1,3.2963085E-1,7.86E3,1.2288E2,2.6628E2,9.642E1,8.5E1,1.1176E2,3.9051555E-2,1.088E2,1.1708E2,3.0348402E-1,6.3E1,-3.7934758E-2,-2.9658625E-1,-2.3928562E-1,1.4703819E-1,-8.518005E-2,2.361262E-1,-9.2033386E-2,-3.0801862E-1,-4.6183042E-2,-2.9765525E-1,3.246847E-1,-1.17139295E-1,-2.4263054E-1,2.88801E-1,-3.010409E-1,-2.562424E-1,-2.4877931E-1,3.7538978E-1,1.9826806E-1,-2.3233916E-1,1.7692833E-1,3.7203103E-1,-2.8756222E-1,-1.8227354E-2,1.0866096E-1,-2.5257334E-1,9.532493E-2,3.6512476E-1,-9.54611E-2,-2.9481262E-1,-1.7125599E-1,2.5176534E-1,1.3233678E-1,-2.937186E-1,2.518769E-1,-2.038383E-1,-2.6357913E-1,4.0638825E-1,-1.3929996E-1,-3.005008E-1,-8.2177855E-2,2.2266985E-1,3.1555453E-1,-2.8302965E-1,3.8198434E-2,-1.2302835E-1,2.4038303E-1,-8.878632E-2,-2.991728E-1,9.322374E-2,3.037311E-1,7.7967145E-2,3.004006E-1,6.5124296E-2,2.5167954E-1,-4.6032292E-1,-8.9120746E-2,2.2134902E-1],"split_indices":[2,0,0,4,4,2,2,2,6,2,6,4,6,1,2,2,8,2,8,6,10,2,2,2,6,6,2,6,4,4,10,1,5,0,10,8,4,2,2,2,4,2,2,6,2,10,1,0,8,2,0,0,5,4,6,8,0,6,0,6,6,0,0,0,0,0,0,0,0,0,0,0,0,0,0,0,0,0,0,0,0,0,0,0,0,0,0,0,0,0,0,0,0,0,0,0,0,0,0,0,0,0,0,0,0,0,0,0,0,0,0,0,0,0,0,0,0,0,0,0,0],"split_type":[0,0,0,0,0,0,0,0,0,0,0,0,0,0,0,0,0,0,0,0,0,0,0,0,0,0,0,0,0,0,0,0,0,0,0,0,0,0,0,0,0,0,0,0,0,0,0,0,0,0,0,0,0,0,0,0,0,0,0,0,0,0,0,0,0,0,0,0,0,0,0,0,0,0,0,0,0,0,0,0,0,0,0,0,0,0,0,0,0,0,0,0,0,0,0,0,0,0,0,0,0,0,0,0,0,0,0,0,0,0,0,0,0,0,0,0,0,0,0,0,0],"sum_hessian":[5.180233E3,3.6674578E3,1.5127753E3,3.0939844E3,5.734734E2,7.354695E2,7.773058E2,9.182322E1,3.0021611E3,1.8535541E2,3.8811795E2,5.1061594E2,2.2485353E2,2.0861989E2,5.686859E2,6.3754677E1,2.8068544E1,1.1906508E2,2.883096E3,1.08001724E2,7.7353676E1,4.1975666E1,3.461423E2,3.8109604E1,4.7250635E2,4.588516E1,1.7896838E2,9.853734E1,1.1008255E2,1.1743989E2,4.5124603E2,5.8525665E1,5.229011E0,2.2338432E1,5.7301116E0,1.0461566E2,1.4449419E1,5.1190586E0,2.877977E3,1.516714E1,9.283459E1,7.334641E1,4.0072618E0,2.8136898E1,1.3838768E1,3.3380734E2,1.2334955E1,9.841883E0,2.8267721E1,1.1783406E1,4.6072293E2,3.1401728E1,1.4483429E1,1.5465395E1,1.6350298E2,2.9910181E1,6.862715E1,1.0814462E2,1.9379271E0,1.0138683E2,1.6053055E1,4.47934E2,3.3120413E0,1.2786992E0,5.7246967E1,3.5854573E0,1.6435539E0,5.424996E0,1.6913437E1,1.1067352E0,4.6233764E0,3.6825097E0,1.0093315E2,1.2495111E1,1.954308E0,4.110741E0,1.0083175E0,2.798106E3,7.9871E1,4.169324E0,1.0997816E1,5.771526E0,8.706306E1,3.2635494E1,4.071092E1,2.8737576E0,1.1335042E0,4.2654605E0,2.3871437E1,3.0989563E0,1.0739812E1,1.3869839E1,3.199375E2,8.718806E0,3.6161487E0,3.950689E0,5.891194E0,2.6765022E1,1.5026989E0,8.017986E0,3.7654195E0,8.568523E0,4.5215442E2,1.3457972E0,1.3137631E1,1.1447818E0,1.4320613E1,1.3029237E2,3.321061E1,2.4783295E1,5.126886E0,5.4214745E1,1.441241E1,1.07074684E2,1.0699376E0,9.869212E1,2.6947105E0,7.3437233E0,8.709331E0,1.0574642E0,2.2545772E0],"tree_param":{"num_deleted":"0","num_feature":"12","num_nodes":"121","size_leaf_vector":"1"}},{"base_weights":[-5.80419E-1,-8.996916E-1,1.1349588E-1,-9.512765E-1,-3.813687E-1,-5.2301675E-1,7.317842E-1,-5.446468E-1,-9.8182774E-1,-4.507123E-2,-8.4525615E-1,-8.759727E-1,1.01947315E-1,1.4448462E-1,9.025906E-1,-9.438244E-1,1.9754642E-1,-7.054266E-1,-9.9683976E-1,-4.1384405E-1,5.3226995E-1,-1.3171768E-1,-9.60182E-1,3.59723E-1,-9.653522E-1,1.0736988E0,-7.956846E-2,-4.6846637E-1,9.5176333E-1,6.7189884E-1,9.929194E-1,-6.3703966E-1,-2.9808527E-1,4.756651E-1,-8.6056316E-1,-9.6621996E-1,8.707141E-1,-3.0086488E-1,-8.632552E-1,-1.4682168E-2,-7.9686E-1,-2.18597E-1,8.6303526E-1,-7.2530186E-1,7.5600195E-1,-4.514959E-2,-2.9250434E-1,8.459781E-1,-3.093213E-1,-3.3924085E-1,-9.9257517E-1,1.1184766E0,-1.1399622E-2,-2.877164E-1,3.3177704E-2,2.3279044E-1,-8.4384906E-1,3.0680904E-1,1.677554E-1,9.189835E-1,-4.0765494E-1,3.0103517E-1,5.6872934E-1,-2.6190948E-1,8.433823E-2,5.428492E-2,4.6918303E-1,4.1964322E-2,-2.872786E-1,4.6376903E-3,-2.98317E-1,3.3079934E-1,-1.7400613E-1,1.9820552E-1,-2.9504007E-1,-2.5058928E-1,6.8612605E-2,1.0037972E-1,-2.8169006E-1,7.837576E-2,-2.3580939E-1,3.4232336E-1,1.7765976E-1,5.404686E-2,-2.6800823E-1,3.2503805E-1,-4.438544E-2,7.6337964E-3,2.7256608E-1,-2.9132217E-1,1.2765384E-1,-2.8482234E-1,2.5980735E-1,1.0347513E-1,-2.9935548E-1,3.4350845E-1,1.2535977E-1,2.7229443E-1,-8.268867E-3,-1.0729277E-1,1.8035313E-1,9.968022E-3,-2.9530326E-1,1.517205E-1,-2.3895837E-1,2.824617E-1,-1.873462E-1,2.625945E-1,-3.1015122E-1,-4.1324216E-1,2.7521133E-1],"categories":[],"categories_nodes":[],"categories_segments":[],"categories_sizes":[],"default_left":[0,0,0,0,1,0,0,0,0,0,0,0,0,0,0,0,1,0,0,0,0,0,0,0,0,1,0,0,0,0,1,0,0,0,0,0,1,0,0,0,0,0,0,0,1,0,0,0,0,0,0,1,0,0,0,0,0,0,1,1,0,0,0,0,0,0,0,0,0,0,0,0,0,0,0,0,0,0,0,0,0,0,0,0,0,0,0,0,0,0,0,0,0,0,0,0,0,0,0,0,0,0,0,0,0,0,0,0,0,0,0],"id":12,"left_children":[1,3,5,7,9,11,13,15,17,19,21,23,25,27,29,31,33,35,37,39,41,43,45,47,49,51,53,55,57,59,61,63,-1,65,67,69,71,-1,73,75,77,79,81,83,85,-1,-1,87,89,91,93,95,-1,-1,97,99,101,-1,103,105,107,-1,109,-1,-1,-1,-1,-1,-1,-1,-1,-1,-1,-1,-1,-1,-1,-1,-1,-1,-1,-1,-1,-1,-1,-1,-1,-1,-1,-1,-1,-1,-1,-1,-1,-1,-1,-1,-1,-1,-1,-1,-1,-1,-1,-1,-1,-1,-1,-1,-1],"loss_changes":[8.7997424E2,7.2366455E1,4.932497E2,3.019043E1,3.8631943E1,1.3633841E2,6.3639008E1,5.205721E1,8.83667E0,3.1040295E1,8.411835E0,4.3956085E1,3.9566273E1,7.190655E1,9.591003E0,1.1088028E0,1.8672054E1,5.0931484E1,8.9282227E-1,1.3579371E1,1.43105755E1,8.769994E0,9.2832947E-1,9.163137E0,5.943878E0,1.7996216E0,1.882548E1,2.1981821E1,3.3130035E0,3.8147926E1,1.0003052E0,4.2992554E0,0E0,1.5685056E1,1.4224052E0,2.91996E0,6.6382303E0,0E0,1.9236542E1,9.088986E0,7.605486E0,5.157081E0,2.311905E0,1.6614699E0,2.1559603E0,0E0,0E0,8.0421257E-1,6.369397E0,1.3230853E1,2.8325806E0,1.5333557E-1,0E0,0E0,8.999551E0,6.66162E0,6.7016525E0,0E0,2.4869757E0,4.6104507E0,2.2650192E1,0E0,8.610387E0,0E0,0E0,0E0,0E0,0E0,0E0,0E0,0E0,0E0,0E0,0E0,0E0,0E0,0E0,0E0,0E0,0E0,0E0,0E0,0E0,0E0,0E0,0E0,0E0,0E0,0E0,0E0,0E0,0E0,0E0,0E0,0E0,0E0,0E0,0E0,0E0,0E0,0E0,0E0,0E0,0E0,0E0,0E0,0E0,0E0,0E0,0E0,0E0],"parents":[2147483647,0,0,1,1,2,2,3,3,4,4,5,5,6,6,7,7,8,8,9,9,10,10,11,11,12,12,13,13,14,14,15,15,16,16,17,17,18,18,19,19,20,20,21,21,22,22,23,23,24,24,25,25,26,26,27,27,28,28,29,29,30,30,31,31,33,33,34,34,35,35,36,36,38,38,39,39,40,40,41,41,42,42,43,43,44,44,47,47,48,48,49,49,50,50,51,51,54,54,55,55,56,56,58,58,59,59,60,60,62,62],"right_children":[2,4,6,8,10,12,14,16,18,20,22,24,26,28,30,32,34,36,38,40,42,44,46,48,50,52,54,56,58,60,62,64,-1,66,68,70,72,-1,74,76,78,80,82,84,86,-1,-1,88,90,92,94,96,-1,-1,98,100,102,-1,104,106,108,-1,110,-1,-1,-1,-1,-1,-1,-1,-1,-1,-1,-1,-1,-1,-1,-1,-1,-1,-1,-1,-1,-1,-1,-1,-1,-1,-1,-1,-1,-1,-1,-1,-1,-1,-1,-1,-1,-1,-1,-1,-1,-1,-1,-1,-1,-1,-1,-1,-1],"split_conditions":[1.2825E2,7.5E1,3E1,6.243E1,7.975E1,2.5073E2,1.4616E2,8.809E1,6.563E1,1.0712E2,7.684E1,9.535E1,1.7838E2,1E0,1.6664E2,4.841E1,6.912E1,1.0712E2,1.215E2,6.866E1,1E0,1.0772E2,6.863E1,1.8E1,1.8E1,2.068E2,2.8872E2,9.113E1,9.662E1,1.009E2,1.3035E2,7.862E1,-2.9808527E-1,6.5E1,6.078E1,4.854E1,7.684E1,-3.0086488E-1,7.515E1,7.539E1,6.389E1,8.473E1,8.193E1,6.447E1,8.272E1,-4.514959E-2,-2.9250434E-1,1.3325E2,1.6428E2,1.5968E2,9.284E1,1.819E2,-1.1399622E-2,-2.877164E-1,2.0721E2,7.1E1,9.216E1,3.0680904E-1,9.073E1,1.1965E2,1.0438E2,3.0103517E-1,1.8336E2,-2.6190948E-1,8.433823E-2,5.428492E-2,4.6918303E-1,4.1964322E-2,-2.872786E-1,4.6376903E-3,-2.98317E-1,3.3079934E-1,-1.7400613E-1,1.9820552E-1,-2.9504007E-1,-2.5058928E-1,6.8612605E-2,1.0037972E-1,-2.8169006E-1,7.837576E-2,-2.3580939E-1,3.4232336E-1,1.7765976E-1,5.404686E-2,-2.6800823E-1,3.2503805E-1,-4.438544E-2,7.6337964E-3,2.7256608E-1,-2.9132217E-1,1.2765384E-1,-2.8482234E-1,2.5980735E-1,1.0347513E-1,-2.9935548E-1,3.4350845E-1,1.2535977E-1,2.7229443E-1,-8.268867E-3,-1.0729277E-1,1.8035313E-1,9.968022E-3,-2.9530326E-1,1.517205E-1,-2.3895837E-1,2.824617E-1,-1.873462E-1,2.625945E-1,-3.1015122E-1,-4.1324216E-1,2.7521133E-1],"split_indices":[2,0,0,4,6,2,2,2,6,2,8,4,4,1,2,4,8,2,2,4,1,2,10,0,0,6,2,4,4,4,8,2,0,0,10,8,8,0,4,2,8,4,8,4,10,0,0,2,2,2,10,6,0,0,8,0,6,0,10,6,8,0,2,0,0,0,0,0,0,0,0,0,0,0,0,0,0,0,0,0,0,0,0,0,0,0,0,0,0,0,0,0,0,0,0,0,0,0,0,0,0,0,0,0,0,0,0,0,0,0,0],"split_type":[0,0,0,0,0,0,0,0,0,0,0,0,0,0,0,0,0,0,0,0,0,0,0,0,0,0,0,0,0,0,0,0,0,0,0,0,0,0,0,0,0,0,0,0,0,0,0,0,0,0,0,0,0,0,0,0,0,0,0,0,0,0,0,0,0,0,0,0,0,0,0,0,0,0,0,0,0,0,0,0,0,0,0,0,0,0,0,0,0,0,0,0,0,0,0,0,0,0,0,0,0,0,0,0,0,0,0,0,0,0,0],"sum_hessian":[3.9704744E3,2.7191074E3,1.2513671E3,2.4722292E3,2.4687827E2,6.1667224E2,6.346948E2,1.7408115E2,2.298148E3,1.4375763E2,1.03120636E2,3.9384305E2,2.2282922E2,1.4341685E2,4.9127795E2,1.1302218E2,6.105897E1,1.20859985E2,2.177288E3,8.7897125E1,5.5860508E1,1.4602767E1,8.851787E1,2.636164E1,3.6748138E2,3.4298065E1,1.8853116E2,8.1758736E1,6.1658115E1,1.4061029E2,3.5066766E2,1.7708788E1,9.531339E1,4.8786224E1,1.227275E1,1.0403327E2,1.6826715E1,2.0768293E3,1.0045879E2,4.3549812E1,4.434731E1,1.7185959E1,3.867455E1,8.86083E0,5.741937E0,1.7928934E0,8.6724976E1,1.5113114E1,1.1248527E1,1.5873025E1,3.5160837E2,3.2964207E1,1.3338578E0,2.0569635E1,1.6796152E2,2.863856E1,5.3120174E1,5.6263233E1,5.3948817E0,1.1454285E2,2.6067446E1,3.4084018E2,9.82746E0,1.4126962E1,3.5818257E0,3.930764E1,9.478584E0,1.0460384E0,1.1226711E1,2.9146152E0,1.0111865E2,1.4714084E1,2.112631E0,7.016288E0,9.3442505E1,9.405697E0,3.4144115E1,4.7972097E0,3.95501E1,9.6039715E0,7.581988E0,1.7497896E1,2.1176653E1,1.3758923E0,7.4849377E0,4.0692625E0,1.6726745E0,1.1705625E0,1.3942553E1,5.7494187E0,5.499108E0,1.0679034E1,5.19399E0,1.1286974E0,3.5047968E2,3.1149393E1,1.8148146E0,1.0003278E1,1.5795825E2,1.1014383E1,1.7624176E1,7.4396696E0,4.5680508E1,4.346851E0,1.048031E0,1.1327746E2,1.2653873E0,8.419361E0,1.7648085E1,1.0447025E0,8.782757E0],"tree_param":{"num_deleted":"0","num_feature":"12","num_nodes":"111","size_leaf_vector":"1"}},{"base_weights":[-5.5882496E-1,-8.8718396E-1,9.20008E-2,-9.674693E-1,-5.00342E-1,-4.8119003E-1,6.6840434E-1,-4.1955593E-1,-9.840883E-1,7.5654514E-2,-7.9152405E-1,-8.629927E-1,8.238115E-2,1.5105924E-1,9.057618E-1,-9.2986566E-1,1.5040486E-1,-3.536671E-1,-9.909156E-1,-5.131536E-1,5.18702E-1,-4.7904108E-2,-9.10438E-1,1.6311193E-1,-9.713709E-1,1.0672767E0,-5.5511728E-2,-4.260089E-1,9.40121E-1,6.799087E-1,9.907179E-1,-2.8914782E-1,-9.530952E-2,5.503177E-1,-8.01672E-1,-2.812624E-1,1.5283644E0,-3.001802E-1,-8.2653797E-1,5.2109122E-2,-9.38791E-1,-3.7216017E-1,7.205495E-1,-8.7220585E-1,5.52523E-1,-9.875003E-1,-4.6598846E-1,6.8533427E-1,-4.0871453E-1,-3.9351186E-1,-9.892979E-1,1.1117184E0,1.0590999E-1,-2.832082E-1,3.2444544E-2,7.627168E-1,-6.611942E-1,9.91388E-1,-1.10517524E-1,9.541323E-1,-3.460855E-1,3.0086496E-1,5.318797E-1,2.4617526E-1,-1.4128882E-1,-2.7144447E-1,-2.5031086E-2,6.387217E-1,1.7826176E-1,1.6552919E-1,-2.966195E-1,1.8500204E-1,-1.966536E-1,-5.8954176E-2,-2.8741327E-1,-2.6382762E-1,2.4605462E-1,2.7580673E-1,8.301074E-3,-1.5598406E-2,-2.7900234E-1,3.6823115E-1,1.3189487E-2,2.27601E-2,-2.9843435E-1,2.0538332E-1,-1.9785328E-1,3.3686407E-2,2.7030697E-1,2.1777306E-1,-2.1067414E-1,-2.5866276E-1,3.13032E-1,-1.9195536E-1,-2.9985407E-1,3.5522363E-1,1.823684E-1,1.7842668E-1,-1.2255134E-2,2.5597966E-1,-7.501429E-2,6.982863E-2,-2.7792645E-1,3.0571347E-1,1.6435191E-1,-1.5860339E-1,1.5913627E-1,2.9344967E-1,-1.2694347E-1,-3.7808394E-1,2.1685407E-1,-3.2302707E-1,2.6518312E-1],"categories":[],"categories_nodes":[],"categories_segments":[],"categories_sizes":[],"default_left":[0,0,0,0,0,0,0,0,0,0,0,0,0,0,0,0,1,0,0,1,0,0,0,0,0,1,0,0,1,0,1,0,0,1,0,0,0,0,0,0,0,0,1,0,0,0,0,0,0,0,0,0,0,0,0,1,0,0,0,1,0,0,0,0,0,0,0,0,0,0,0,0,0,0,0,0,0,0,0,0,0,0,0,0,0,0,0,0,0,0,0,0,0,0,0,0,0,0,0,0,0,0,0,0,0,0,0,0,0,0,0,0,0],"id":13,"left_children":[1,3,5,7,9,11,13,15,17,19,21,23,25,27,29,31,33,35,37,39,41,43,45,47,49,51,53,55,57,59,61,-1,-1,63,65,-1,67,-1,69,71,73,75,77,79,81,83,85,87,89,91,93,95,-1,-1,97,99,101,103,105,107,109,-1,111,-1,-1,-1,-1,-1,-1,-1,-1,-1,-1,-1,-1,-1,-1,-1,-1,-1,-1,-1,-1,-1,-1,-1,-1,-1,-1,-1,-1,-1,-1,-1,-1,-1,-1,-1,-1,-1,-1,-1,-1,-1,-1,-1,-1,-1,-1,-1,-1,-1,-1],"loss_changes":[6.5377167E2,6.2662354E1,3.3951852E2,1.490918E1,5.9016205E1,1.10959496E2,6.2773056E1,1.5054622E1,6.675659E0,3.1295444E1,2.0610367E1,3.4332764E1,2.844931E1,7.431397E1,6.0610046E0,2.5915337E-1,9.991999E0,2.2359766E1,1.7429199E0,1.2457518E1,1.2562542E1,1.6941929E1,6.4349213E0,9.302375E0,2.491516E0,4.2401505E-1,1.4435319E1,2.6908464E1,3.819645E0,2.8219532E1,8.7805176E-1,0E0,0E0,5.425857E0,5.043287E-1,0E0,1.4786177E0,0E0,2.1910881E1,9.632999E0,2.3293877E-1,8.7589655E0,7.699795E0,6.345062E-1,6.7604594E0,1.3968201E0,7.496943E0,1.8968258E0,5.521517E0,7.6535687E0,3.209839E-1,1.4607048E-1,0E0,0E0,6.976532E0,1.6864748E0,1.9037136E1,2.4860382E-1,1.3805337E0,3.011818E0,2.2057962E1,0E0,5.856509E0,0E0,0E0,0E0,0E0,0E0,0E0,0E0,0E0,0E0,0E0,0E0,0E0,0E0,0E0,0E0,0E0,0E0,0E0,0E0,0E0,0E0,0E0,0E0,0E0,0E0,0E0,0E0,0E0,0E0,0E0,0E0,0E0,0E0,0E0,0E0,0E0,0E0,0E0,0E0,0E0,0E0,0E0,0E0,0E0,0E0,0E0,0E0,0E0,0E0,0E0],"parents":[2147483647,0,0,1,1,2,2,3,3,4,4,5,5,6,6,7,7,8,8,9,9,10,10,11,11,12,12,13,13,14,14,15,15,16,16,17,17,18,18,19,19,20,20,21,21,22,22,23,23,24,24,25,25,26,26,27,27,28,28,29,29,30,30,33,33,34,34,36,36,38,38,39,39,40,40,41,41,42,42,43,43,44,44,45,45,46,46,47,47,48,48,49,49,50,50,51,51,54,54,55,55,56,56,57,57,58,58,59,59,60,60,62,62],"right_children":[2,4,6,8,10,12,14,16,18,20,22,24,26,28,30,32,34,36,38,40,42,44,46,48,50,52,54,56,58,60,62,-1,-1,64,66,-1,68,-1,70,72,74,76,78,80,82,84,86,88,90,92,94,96,-1,-1,98,100,102,104,106,108,110,-1,112,-1,-1,-1,-1,-1,-1,-1,-1,-1,-1,-1,-1,-1,-1,-1,-1,-1,-1,-1,-1,-1,-1,-1,-1,-1,-1,-1,-1,-1,-1,-1,-1,-1,-1,-1,-1,-1,-1,-1,-1,-1,-1,-1,-1,-1,-1,-1,-1,-1,-1],"split_conditions":[1.2623E2,6.5E1,3E1,5.437E1,7.26E1,2.5073E2,1.5053E2,8.347E1,5.453E1,9.254E1,7.252E1,1.0023E2,1.7155E2,1E0,1.6886E2,5.5E1,6.083E1,9.054E1,1.185E2,5.752E1,1E0,9.41E1,8.5E1,1.8E1,1.0617E2,1.819E2,2.8872E2,9.111E1,1.0017E2,1.0113E2,1.3035E2,-2.8914782E-1,-9.530952E-2,6.77E1,1.0899E2,-2.812624E-1,6.414E4,-3.001802E-1,7.772E1,5.759E1,2.04E3,1.1597E2,6.822E1,5.759E1,7.034E1,6.164E1,7.93E1,1.4195E2,9.299E1,1.8859E2,1.8E1,1.4999E2,1.0590999E-1,